{"layers":[{"out_depth":9,"out_sx":1,"out_sy":1,"layer_type":"input"},{"out_depth":10,"out_sx":1,"out_sy":1,"layer_type":"fc","num_inputs":9,"l1_decay_mul":0,"l2_decay_mul":1,"filters":[{"sx":1,"sy":1,"depth":9,"w":{"0":-0.722014487402388,"1":-0.3178738403875261,"2":-0.6321945438358039,"3":-1.649272744196937,"4":-1.3677659962714077,"5":-0.5845587102250673,"6":-1.0334120581607966,"7":-0.8477779179990862,"8":-1.1940319687458154}},{"sx":1,"sy":1,"depth":9,"w":{"0":0.09306740661193594,"1":-0.07383892974873829,"2":-0.31500686807671613,"3":-0.22464898302247738,"4":-0.256462519675608,"5":-0.5039609339323804,"6":0.051737468033885105,"7":-0.09124659914069302,"8":0.3552226481235881}},{"sx":1,"sy":1,"depth":9,"w":{"0":-0.49500923054754653,"1":-0.11983899763934586,"2":-0.551927603337735,"3":-0.7658278177492632,"4":-1.0398595190972595,"5":-0.3540218453026363,"6":-0.2465717330690621,"7":-1.2098308698303255,"8":-0.4778653267518426}},{"sx":1,"sy":1,"depth":9,"w":{"0":-0.18253825190615947,"1":-0.40015399294577253,"2":-0.556231897326812,"3":-0.31765175002763285,"4":-0.4543234985154635,"5":0.13781453243747552,"6":-0.962077773627138,"7":-0.19440088461930635,"8":0.1971829884714275}},{"sx":1,"sy":1,"depth":9,"w":{"0":-1.8190856604291492,"1":-3.2229549071919683,"2":-4.663964806377218,"3":-6.5066242876418805,"4":-4.940149317014414,"5":-2.637009145181758,"6":-1.6940997048669484,"7":-0.8886434017988678,"8":-1.7567388312622338}},{"sx":1,"sy":1,"depth":9,"w":{"0":0.07735511433038872,"1":0.18858133559457568,"2":0.09224149109538235,"3":-0.03577957845701553,"4":-0.08741182683482229,"5":-0.5392728433692932,"6":-0.5459677269586778,"7":-0.7451414540474255,"8":-0.18704348917863053}},{"sx":1,"sy":1,"depth":9,"w":{"0":-0.011437097680591653,"1":-0.3929121767728936,"2":-0.8880344513762242,"3":-1.3826705320219577,"4":-1.23942139129108,"5":-0.5747681165721981,"6":0.004322575202681575,"7":0.46444184947454864,"8":-0.14584200079574797}},{"sx":1,"sy":1,"depth":9,"w":{"0":2.1294146872652653,"1":2.157824176249198,"2":0.8155883037257031,"3":0.21805112563275625,"4":0.18971105761064802,"5":1.3915012305491572,"6":-0.15442384768267398,"7":0.5498296040248749,"8":1.545026621541323}},{"sx":1,"sy":1,"depth":9,"w":{"0":-0.29136235495207646,"1":-0.6545455739364318,"2":-1.4656151104377169,"3":-2.2351344274519684,"4":-1.371115191720633,"5":-0.3845182920121066,"6":-0.36074755634777184,"7":-0.4392156775637912,"8":-1.0454637644453946}},{"sx":1,"sy":1,"depth":9,"w":{"0":-0.06632409802812941,"1":-0.6334034643688294,"2":-0.49239032284707296,"3":-1.1026727393657123,"4":-0.3772524869370819,"5":0.05371271989790732,"6":0.33080340779938805,"7":-0.5009590464186319,"8":0.08267901608943752}}],"biases":{"sx":1,"sy":1,"depth":10,"w":{"0":0.09216119587076463,"1":0.09905604343560266,"2":0.09564061171665837,"3":0.1,"4":0.07571571155592946,"5":0.09906899507061998,"6":0.09582260497447821,"7":0.11125075882418317,"8":0.09191532870581928,"9":0.09670747333717593}}},{"out_depth":10,"out_sx":1,"out_sy":1,"layer_type":"relu"},{"out_depth":6,"out_sx":1,"out_sy":1,"layer_type":"fc","num_inputs":10,"l1_decay_mul":0,"l2_decay_mul":1,"filters":[{"sx":1,"sy":1,"depth":10,"w":{"0":-0.1511971553170027,"1":-0.1195861459202767,"2":-0.04472372694145052,"3":-0.2828359617448196,"4":-0.44484306360048864,"5":1.0621193855698845,"6":-1.7010941288987884,"7":-0.09152155565312828,"8":-0.33961487267102686,"9":-1.0562425089775667}},{"sx":1,"sy":1,"depth":10,"w":{"0":-2.8157482195250116,"1":-0.5851614718397107,"2":-0.3226173812614577,"3":0.15317146456337027,"4":-0.7691896076830491,"5":0.1771281997493759,"6":-0.5434412495502123,"7":-0.8532621996568454,"8":-3.5313203763135945,"9":-4.123440008074306}},{"sx":1,"sy":1,"depth":10,"w":{"0":0.14063695156575276,"1":-0.28224069549649294,"2":0.17248127405554833,"3":0.13870546045098406,"4":-0.5382587788091283,"5":0.007377664328439926,"6":0.014868771154584253,"7":-0.20590625709897142,"8":-0.3574896348578901,"9":-0.42720835057906253}},{"sx":1,"sy":1,"depth":10,"w":{"0":-1.0571552834830684,"1":-0.15508330360012285,"2":-0.10115062047554137,"3":-0.07603382141697981,"4":-0.5511615938566378,"5":-1.0464314006805229,"6":-0.9579597290948811,"7":-1.1498444231813976,"8":-0.991462881191822,"9":-1.332383970676969}},{"sx":1,"sy":1,"depth":10,"w":{"0":-0.2880563573770421,"1":0.04311468676865008,"2":0.3772416952787991,"3":-0.049553384800625475,"4":-0.5613534724884294,"5":-0.2067403300497623,"6":-0.6517063896952042,"7":-0.24545942409916396,"8":0.08690659586086712,"9":-0.8396739637335496}},{"sx":1,"sy":1,"depth":10,"w":{"0":-0.16097421862989267,"1":0.0720413422255317,"2":0.34343467597445804,"3":0.14415982486334614,"4":-0.7891906822223292,"5":0.41693168359599825,"6":-0.39326312237484706,"7":-0.35220842488573667,"8":-0.2716085246691272,"9":-0.44108566425674056}}],"biases":{"sx":1,"sy":1,"depth":6,"w":{"0":0.09389405969984779,"1":0.07397550753540111,"2":0.09959343736206805,"3":0.06940036178102153,"4":0.09556749494539428,"5":0.09412236642209501}}},{"out_depth":6,"out_sx":1,"out_sy":1,"layer_type":"relu"},{"out_depth":5,"out_sx":1,"out_sy":1,"layer_type":"fc","num_inputs":6,"l1_decay_mul":0,"l2_decay_mul":1,"filters":[{"sx":1,"sy":1,"depth":6,"w":{"0":0.8156642868313682,"1":0.702394375663992,"2":0.023482875823281422,"3":-2.1839703378783857,"4":0.35082421433565325,"5":0.9365017360289537}},{"sx":1,"sy":1,"depth":6,"w":{"0":0.834255623385204,"1":0.9453213505641788,"2":0.008928708512751514,"3":10.491765131260832,"4":-0.3747832189305993,"5":0.2863401881253455}},{"sx":1,"sy":1,"depth":6,"w":{"0":0.9234343484514296,"1":-0.01630484891098049,"2":0.6748712709818552,"3":0.15188252185385256,"4":0.23160184916902674,"5":-0.15187343317433663}},{"sx":1,"sy":1,"depth":6,"w":{"0":0.6185882266388408,"1":0.4222119637547924,"2":0.3637282957280558,"3":-1.1077297951097225,"4":-0.11542167867141681,"5":-0.30068154224455457}},{"sx":1,"sy":1,"depth":6,"w":{"0":0.9235751914825145,"1":-0.05631489671816695,"2":-0.27586358062824484,"3":-2.1755719174968307,"4":0.022866217216211772,"5":0.38158002572908195}}],"biases":{"sx":1,"sy":1,"depth":5,"w":{"0":3.198530439054366,"1":3.7313594546099296,"2":3.5100269829813064,"3":3.3855855115124482,"4":3.1275222079659213}}},{"out_depth":5,"out_sx":1,"out_sy":1,"layer_type":"regression","num_inputs":5}]}
