{"layers":[{"out_depth":1,"out_sx":24,"out_sy":24,"layer_type":"input"},{"sx":5,"sy":5,"stride":1,"in_depth":1,"out_depth":8,"out_sx":24,"out_sy":24,"layer_type":"conv","l1_decay_mul":0,"l2_decay_mul":1,"pad":2,"filters":[{"sx":5,"sy":5,"depth":1,"w":{"0":0.09818275625589096,"1":0.2583778847136766,"2":-0.3603771198600625,"3":0.08944119087215707,"4":0.2866998611535444,"5":-0.2612626858146496,"6":-0.038562194976507196,"7":0.24997278374260706,"8":0.05355178739937379,"9":-0.12908211190789454,"10":0.2483120544737901,"11":-0.019779869385906947,"12":0.30908898557687664,"13":0.1848326428876835,"14":-0.13764742004081457,"15":-0.05881878810550908,"16":0.09311786207678124,"17":-0.03261653505052522,"18":-0.048705723500950183,"19":0.002464754976494302,"20":0.10151161267503368,"21":-0.016645132676560846,"22":-0.10428453956897427,"23":-0.01768646481140618,"24":-0.04181987071716841}},{"sx":5,"sy":5,"depth":1,"w":{"0":0.013923244840971166,"1":-0.03830730740431738,"2":-0.2381752573411789,"3":0.1269913638705021,"4":-0.35666161069668734,"5":0.1728361600649323,"6":-0.16562845280803004,"7":0.15760762847444532,"8":0.10204215003521444,"9":-0.13747617591719574,"10":-0.08041528983438925,"11":-0.08741870659881468,"12":0.17314430388467233,"13":0.025800350703381065,"14":-0.09261986270202775,"15":-0.4179271578041559,"16":0.026989227192622107,"17":0.14884725059445272,"18":0.13193519884628618,"19":-0.28189117773060396,"20":0.08240933869962147,"21":-0.004825966700497758,"22":0.00011713871171975337,"23":0.004244567379213666,"24":-0.1801512047304893}},{"sx":5,"sy":5,"depth":1,"w":{"0":0.09719237976448532,"1":-0.009818005678846088,"2":0.02499851837816267,"3":0.008802766662504792,"4":0.3993635976654482,"5":-0.39181427168858907,"6":-0.0936158117696756,"7":-0.2697499510430719,"8":0.3313678716891418,"9":-0.055421425869485834,"10":0.07695668341765531,"11":-0.11459560084697028,"12":0.19573315661382593,"13":-0.09753138508634691,"14":0.006351136535779052,"15":0.11658552723743283,"16":0.44615141926774887,"17":-0.19079297689685162,"18":-0.07960801205334418,"19":-0.12270020519606718,"20":-0.4031486074514576,"21":-0.184356032016144,"22":0.2462984940074085,"23":-0.2098229995979228,"24":-0.1357168663750523}},{"sx":5,"sy":5,"depth":1,"w":{"0":-0.4383187448789853,"1":-0.10089776808436773,"2":-0.14388394262041643,"3":-0.034787944395509654,"4":-0.3438017634144776,"5":-0.23934800961788183,"6":0.21298017373958664,"7":-0.2709227505592997,"8":0.04826443237224159,"9":0.2634165774718321,"10":-0.1479881074071984,"11":-0.12258288047325275,"12":0.16933330806840916,"13":-0.1002225573485266,"14":-0.2538756908393369,"15":-0.48985598610120423,"16":0.28029720501599853,"17":-0.003970360760134272,"18":0.21040797745722087,"19":0.1329200062556453,"20":-0.24202084164374232,"21":0.00896577593111849,"22":-0.3394385012163257,"23":-0.0025532721227140955,"24":-0.06851203826770294}},{"sx":5,"sy":5,"depth":1,"w":{"0":0.22445709911481357,"1":-0.02746752087935971,"2":-0.36845842492818165,"3":-0.05551868812660347,"4":-0.13575421396038562,"5":-0.030652651618520772,"6":-0.2666815228774507,"7":0.07450881188367303,"8":-0.24607447658637221,"9":0.13656099985959066,"10":0.05913465661262308,"11":-0.02019208188570643,"12":0.01987354059704945,"13":-0.1547354799355374,"14":-0.07645798117210925,"15":-0.030991686203479404,"16":-0.08041431241000892,"17":-0.36171071099270335,"18":0.05043006342735306,"19":0.2308081031617762,"20":-0.27061097645680043,"21":0.02480447108753184,"22":-0.0679109163127458,"23":0.06304476893991104,"24":0.05086520551828971}},{"sx":5,"sy":5,"depth":1,"w":{"0":0.0032795257520432746,"1":-0.29155555743806244,"2":-0.16076267195219365,"3":-0.3284614680667971,"4":0.3051619029845297,"5":0.04351165620043913,"6":-0.21968939903835602,"7":-0.5515453455061813,"8":-0.10186232599012925,"9":-0.01932256350338304,"10":-0.01591772727981344,"11":0.16270780037357863,"12":0.008710484273123043,"13":-0.013430265576583902,"14":-0.11186116816657501,"15":-0.11732874088308373,"16":0.15412345447390602,"17":0.09252248843163866,"18":-0.3750825300628054,"19":0.04160921445080218,"20":-0.039149802048652746,"21":0.26566224942500954,"22":-0.06068531090383568,"23":-0.011021472554465986,"24":-0.1429058044491279}},{"sx":5,"sy":5,"depth":1,"w":{"0":0.05262938223886447,"1":0.30192212382169037,"2":0.14888398532717675,"3":-0.1707416538072967,"4":-0.046705589450239185,"5":-0.1028760564531852,"6":-0.25106893849271156,"7":-0.24989190646414805,"8":-0.20203177265668057,"9":-0.13343549161228818,"10":0.20629160050385353,"11":-0.07830969926064447,"12":-0.14520393140640683,"13":-0.10301385776578263,"14":-0.17513798236734693,"15":0.19242785641721705,"16":0.17748934042777773,"17":-0.17018329149126835,"18":-0.12780740841129598,"19":0.26176128046997443,"20":-0.11512788145081476,"21":-0.14378458411781486,"22":0.015341923126012015,"23":-0.17387508225472043,"24":0.26349408320007}},{"sx":5,"sy":5,"depth":1,"w":{"0":0.17167583709610304,"1":-0.284025749073569,"2":-0.019999477643999623,"3":-0.008586665040585379,"4":-0.007472236254116065,"5":0.21179969511487948,"6":0.016315750745126846,"7":-0.27982881924696235,"8":-0.16720425432151384,"9":0.26163031659875396,"10":-0.05780776838046998,"11":-0.37463091787748526,"12":0.14407992571612346,"13":0.45351896789176216,"14":-0.09894037748555175,"15":-0.35419132644235846,"16":-0.038812645246975544,"17":-0.16927444453010576,"18":-0.08206803471133876,"19":0.060752689466788364,"20":-0.2759404762923224,"21":-0.33700064718798833,"22":0.3543661716502687,"23":-0.027025881855969984,"24":0.0956536904149097}}],"biases":{"sx":1,"sy":1,"depth":8,"w":{"0":0.12650845411676745,"1":0.13841114078620295,"2":0.10502673011364447,"3":0.03275045708960627,"4":0.08776233441027244,"5":0.1300158974984432,"6":0.20529284699853348,"7":0.18041025096699925}}},{"out_depth":8,"out_sx":24,"out_sy":24,"layer_type":"relu"},{"sx":2,"sy":2,"stride":2,"in_depth":8,"out_depth":8,"out_sx":12,"out_sy":12,"layer_type":"pool","pad":0},{"sx":5,"sy":5,"stride":1,"in_depth":8,"out_depth":16,"out_sx":12,"out_sy":12,"layer_type":"conv","l1_decay_mul":0,"l2_decay_mul":1,"pad":2,"filters":[{"sx":5,"sy":5,"depth":8,"w":{"0":-0.09643559569877215,"1":-0.14399271049430132,"2":-0.005275852413348221,"3":0.02904184139425445,"4":-0.119742346975266,"5":0.06429093684670448,"6":0.01360963241732238,"7":-0.12643318700077855,"8":-0.035483757978638064,"9":0.0405313080764053,"10":-0.03593134717512079,"11":0.10220757386568516,"12":-0.05239369447117408,"13":-0.06114593423096594,"14":0.062442959685277154,"15":-0.2711041201800356,"16":-0.1926691242438614,"17":0.08821267830430636,"18":0.014089101721123095,"19":0.14494454617003563,"20":-0.03529225009404702,"21":-0.06428366502336356,"22":-0.02763602244259332,"23":-0.07007271005335845,"24":-0.14944360259187608,"25":-0.18367976601671562,"26":0.0025971298179121188,"27":0.10238023267576037,"28":0.048021975012370634,"29":-0.053144650210899425,"30":0.07952958975336447,"31":0.06249401201989445,"32":-0.09458730000273392,"33":0.11394275585594522,"34":-0.013742582804578752,"35":0.043998261424732656,"36":-0.07002628290049027,"37":-0.104142232306039,"38":0.01421558178233004,"39":-0.04126058070220186,"40":0.02608864871155106,"41":0.15652804401156148,"42":-0.1322885590445316,"43":0.09029084903996454,"44":-0.01320676094883532,"45":0.11532576691209626,"46":-0.05289052666076317,"47":0.07563554158886222,"48":-0.07945075951908115,"49":-0.054540344181632006,"50":-0.1497463416459498,"51":0.09382794626956041,"52":-0.01816849466329764,"53":-0.02487836029883054,"54":0.021640176475812102,"55":-0.07687484712978654,"56":-0.049708388454992834,"57":-0.09041412637478358,"58":-0.04749186925264587,"59":0.1667438760383742,"60":0.014735050033983565,"61":-0.01692231697092572,"62":0.023064153743549098,"63":-0.04923712474890868,"64":0.019577514050612255,"65":0.07498700833742519,"66":-0.11865510227333313,"67":-0.05158833109984157,"68":-0.03647541148004991,"69":0.026355397276104895,"70":-0.0053946234448808495,"71":0.03921377166308626,"72":-0.009039034641755718,"73":-0.08432151107917828,"74":-0.021170654430969174,"75":-0.03981902080476035,"76":0.058846763522470556,"77":-0.11992969360386721,"78":-0.02605230413732733,"79":0.046027333597215295,"80":0.07876546753446616,"81":0.019658256975781153,"82":-0.16364603244103693,"83":-0.009616210228785432,"84":0.008887667924529368,"85":-0.07697759869031,"86":0.026047034963015078,"87":0.09528105030249223,"88":0.0011584882086120654,"89":-0.024991736763023038,"90":-0.10894791804095501,"91":-0.11866364218725221,"92":0.010995834722093586,"93":0.01718106143688401,"94":0.045184796830009775,"95":-0.05827603739636974,"96":-0.012047544794062115,"97":0.0631437083270429,"98":-0.13351777570236736,"99":-0.04636082874996828,"100":0.029694957099441283,"101":-0.11310722860077864,"102":0.005084750573732097,"103":0.08485050621800821,"104":-0.0008045292346425307,"105":-0.03642619645430885,"106":-0.043233712592803925,"107":-0.0867618339612135,"108":-0.0022524313318581053,"109":-0.1942399385669927,"110":-0.12043578507601446,"111":0.1260344359659544,"112":-0.16356337472504073,"113":0.07585371894241599,"114":-0.011627349010639835,"115":0.027208742708321285,"116":-0.06597945737389087,"117":-0.12205525462061916,"118":-0.0792718804751032,"119":0.009026744162315277,"120":0.047218113465644494,"121":0.0168731452202009,"122":-0.02086304259134378,"123":0.09123839697311872,"124":0.11853511593405495,"125":0.06761773643038928,"126":-0.013748794899544026,"127":0.051815619891565794,"128":-0.1468305369674578,"129":-0.028124530497341798,"130":-0.15161425808128842,"131":-0.15961933962461725,"132":0.02619241869455142,"133":-0.038672185297426956,"134":0.0255535531272153,"135":0.014557863131680018,"136":-0.057330240570426225,"137":-0.08497175060249597,"138":0.10388942128806619,"139":0.12392157572866747,"140":-0.010150942204471299,"141":-0.18080065471903592,"142":0.06547300149472657,"143":0.02976847747518733,"144":0.033552385485975486,"145":0.11997784917747939,"146":-0.058839582244985936,"147":-0.12793817508326016,"148":0.04918509452540193,"149":-0.0016606986948398217,"150":-0.0024108375709239647,"151":0.0059899768552711796,"152":-0.08289044283333871,"153":-0.03587104213162756,"154":-0.0539961340809556,"155":-0.0236770303986933,"156":-0.004737010697224139,"157":-0.12782234605809872,"158":-0.040973380655684045,"159":-0.048386928076501294,"160":0.08121347419243882,"161":0.008456689519780899,"162":-0.07444852378125427,"163":0.14108438864607084,"164":-0.0024259041811680797,"165":0.05453329585814593,"166":0.03831615811286408,"167":-0.019597631557414546,"168":-0.16024363374406628,"169":-0.0012655752491730332,"170":-0.06277449922630535,"171":0.17488403527266402,"172":0.07946552993869233,"173":-0.04207412304828861,"174":0.011767404702586528,"175":-0.027614075833230653,"176":-0.023323819324383897,"177":0.041687442247727725,"178":-0.07059536590528179,"179":-0.013291343136732383,"180":-0.017906307899164458,"181":0.008548336533013075,"182":0.008026421550368324,"183":0.0779860931632331,"184":0.0720890776475616,"185":0.05079273550668901,"186":-0.002724615461657849,"187":0.012198009163173287,"188":0.10758072186412122,"189":-0.025151660476507808,"190":-0.05425020515706033,"191":0.05017682327566212,"192":-0.00022495204635706993,"193":0.021585879738344554,"194":0.06074605230057698,"195":-0.012976919731362412,"196":0.043093637543248804,"197":-0.10743851393298547,"198":0.05924504433594053,"199":0.02151090152980218}},{"sx":5,"sy":5,"depth":8,"w":{"0":0.061364930572605565,"1":-0.04552114923422274,"2":0.004524878302444716,"3":-0.028549928246444232,"4":0.07454717076727446,"5":-0.061576105138413356,"6":-0.01773635665590832,"7":0.1638726836476607,"8":-0.0907169803889415,"9":0.05805988871731968,"10":-0.0004601040738001636,"11":-0.017686600909262214,"12":0.06342475330004398,"13":0.03393623455445764,"14":-0.10892853042273115,"15":0.12063015580321658,"16":0.03951317999284136,"17":-0.08657105160289848,"18":0.0034411652716105617,"19":-0.02692050817643797,"20":0.0726827713521294,"21":-0.1365152284895776,"22":-0.025057700115722857,"23":-0.09536089401415594,"24":-0.06112809380945668,"25":-0.0628971108802913,"26":0.06875056908872451,"27":0.06676074297682112,"28":0.07723935516460975,"29":0.11650013022733502,"30":-0.07501761757033962,"31":-0.01705103557332692,"32":-0.08243779695766307,"33":0.012047760702335587,"34":-0.15938491774091965,"35":0.03292212367041834,"36":-0.1532868951274537,"37":0.11017296677503519,"38":-0.015299398428674331,"39":0.014992640097343985,"40":0.016371384066138542,"41":0.06872713322683043,"42":-0.00886419722074116,"43":-0.028789359516307768,"44":-0.010540269681383631,"45":-0.033810337618203505,"46":-0.017564994511305325,"47":0.0335853577094493,"48":-0.13311588829048646,"49":-0.03342129232630069,"50":-0.09882987298308388,"51":0.005375491691988259,"52":-0.03138343878988209,"53":0.02748194028493481,"54":-0.0638482701334655,"55":-0.07043252859839243,"56":-0.0029634465463851136,"57":-0.09911297859716756,"58":0.10616601608483789,"59":-0.13186937859692244,"60":0.026220490914021434,"61":0.07238762964288012,"62":-0.25150214279475913,"63":-0.10377795239938964,"64":0.05495833147215759,"65":0.01969366265342203,"66":0.10202180591120336,"67":0.08129582381309683,"68":0.0480447309041117,"69":-0.12621182925432933,"70":-0.07974667830402077,"71":-0.06762677990611538,"72":-0.050760678701169924,"73":-0.008824064300489863,"74":-0.06924965842957906,"75":-0.10111040723209988,"76":-0.07315388693065399,"77":-0.0584061499621204,"78":0.0828522002708356,"79":0.014266664555503406,"80":-0.07198063919570595,"81":0.04170327393677085,"82":0.002389538173449498,"83":0.14140560242852904,"84":-0.08522699969731913,"85":0.007261444406818966,"86":0.042454807977071046,"87":0.03305592500379871,"88":-0.015590213996777815,"89":-0.07034641089488647,"90":0.10983926211362313,"91":0.017580003773436055,"92":0.05030406672049906,"93":0.07637114995422067,"94":-0.07077614974484217,"95":-0.037342166696462585,"96":-0.016825899463766853,"97":-0.04958644946280791,"98":-0.04202017936034249,"99":-0.10989836503653762,"100":-0.13978227136282828,"101":-0.024122026921500492,"102":-0.10142505710340166,"103":-0.010164914970378098,"104":-0.029266261242103547,"105":-0.05167401357000244,"106":0.12612008182085535,"107":-0.06766908168018296,"108":-0.03689875681850947,"109":0.03579146733982517,"110":-0.056754982092757554,"111":-0.10191339854808791,"112":0.10713492302211235,"113":0.01533751935367021,"114":0.12322210324029886,"115":-0.012476837059672806,"116":-0.10163893855461452,"117":0.007861863745591538,"118":-0.20209408886285887,"119":-0.09423052382311649,"120":-0.04786311983917615,"121":0.03549735632405909,"122":0.05813794608415882,"123":0.045850750882558175,"124":-0.06288059595404896,"125":-0.16918401307476305,"126":-0.01220818171925842,"127":-0.023854094804633408,"128":-0.042433320391446316,"129":0.13753767793746335,"130":0.040865125674222055,"131":-0.06736680449430862,"132":-0.023258263858386474,"133":0.10706036773713853,"134":-0.007428760501907063,"135":-0.031086170439969623,"136":-0.08870895550127714,"137":0.07911005024194666,"138":0.004581246025251865,"139":-0.05392126414481668,"140":0.0009359183427514461,"141":0.04587300205289346,"142":0.03612298898213639,"143":0.026232037458780423,"144":0.06174148432311988,"145":-0.09061328675488657,"146":-0.09202429296277335,"147":-0.033112399408805254,"148":-0.07095560459204876,"149":-0.03445818361261062,"150":0.01379305088749306,"151":-0.044498384022746,"152":-0.11136824675821945,"153":-0.18840080829359038,"154":-0.08861261153885729,"155":0.1646884817755475,"156":-0.12734452662207837,"157":0.01894523080078263,"158":-0.09931778741893288,"159":-0.046241939350440645,"160":-0.012066345061139513,"161":-0.0386449873735333,"162":-0.15154591576116658,"163":-0.04317357323581773,"164":-0.0069958905397911955,"165":-0.016427796767066554,"166":-0.12464513290169209,"167":0.010206488767359087,"168":0.03139084201596945,"169":-0.12242253843170392,"170":0.04873910071158927,"171":0.015802335456901493,"172":0.06816503505185494,"173":-0.05603508740756531,"174":-0.08369969037807294,"175":0.03009434656334667,"176":0.040445121136897286,"177":0.06966327033141294,"178":-0.03092780337989854,"179":0.12689505192312214,"180":0.029973133552905012,"181":-0.1154949823388607,"182":-0.01555290991937649,"183":-0.18509270359797528,"184":-0.02524123172878937,"185":0.04637610897804154,"186":0.0018970064253096839,"187":-0.05341025469237762,"188":-0.03976496733265949,"189":-0.027738450857265083,"190":-0.09305822323516423,"191":0.013008343523892149,"192":-0.014253493167578022,"193":-0.017226669665680584,"194":-0.036507558706657756,"195":0.04132207422447096,"196":-0.027876012066329645,"197":-0.019348097758675124,"198":-0.004552459236061191,"199":-0.060778360453010556}},{"sx":5,"sy":5,"depth":8,"w":{"0":0.10715407791221632,"1":0.05535362459145718,"2":-0.014745639666043257,"3":0.15652995988247123,"4":-0.06968732848813355,"5":0.06324792270632666,"6":0.011917579807598144,"7":-0.057926305749935694,"8":-0.00737053414512662,"9":-0.013075027004565358,"10":-0.01346275251756641,"11":-0.10737119279221138,"12":0.02490542115059367,"13":-0.053739475494084574,"14":-0.022685511188930495,"15":-0.07859711113207905,"16":0.03476086723801996,"17":-0.038786539041697626,"18":0.009339434673930154,"19":-0.06983394301249209,"20":0.02208911062733196,"21":-0.0424300001391666,"22":0.025321137568964043,"23":0.0005503446506290359,"24":-0.008976366007854418,"25":-0.010869474046668923,"26":-0.09161709774296282,"27":-0.06373204305769212,"28":-0.0816535817681175,"29":0.0791205240472337,"30":0.003248060759728258,"31":-0.021495303661607793,"32":-0.06056251617607453,"33":-0.06069303558509324,"34":0.03179267709957568,"35":-0.050817692868222984,"36":0.12865617417885267,"37":0.05472248530259161,"38":0.006331575567247533,"39":-0.09775551989541013,"40":-0.04611825548417545,"41":-0.11445016961120566,"42":-0.0074414668394028535,"43":-0.02209439320092032,"44":-0.0007075379870782012,"45":-0.05919752180193649,"46":-0.05560152384955484,"47":-0.020166427897512208,"48":-0.0026046946477743175,"49":-0.05641345359870748,"50":0.0796901388086226,"51":0.08930808075383737,"52":-0.010929377089513454,"53":-0.008401897642103516,"54":0.036410858789324124,"55":0.050454814502991954,"56":-0.08572448024649038,"57":-0.03242703086729155,"58":0.045444425072389515,"59":0.007980899688991731,"60":0.0644187751385427,"61":-0.10733472174413047,"62":-0.027432540541692398,"63":0.019626227815016127,"64":-0.04244068259216159,"65":-0.20428945276099394,"66":0.04883727769936964,"67":-0.1477216096236137,"68":0.024131176063431393,"69":-0.05864766774282053,"70":0.045184092226706725,"71":0.016277358558447974,"72":0.08130583944103653,"73":0.022985580829580438,"74":-0.15599326051653123,"75":0.03503987729915297,"76":-0.031862720729934166,"77":-0.0732763967934952,"78":-0.12279604443011008,"79":0.030915250999631414,"80":-0.15457808567635148,"81":-0.01794655450378882,"82":0.03314039576524853,"83":-0.01716521423824824,"84":0.008357912150150342,"85":-0.03708505352700943,"86":-0.09519121169259348,"87":-0.08993169372381736,"88":-0.06080161248122101,"89":-0.09003529126423929,"90":0.03547656971048804,"91":0.04739421483136322,"92":0.12757416985058287,"93":-0.003271874937918918,"94":0.016239224897225416,"95":-0.043982137576545705,"96":-0.1037460405093919,"97":0.036182862147219594,"98":0.018904983526793775,"99":-0.008410754320084993,"100":-0.015936939091632605,"101":-0.035192439476400834,"102":0.09808859775178894,"103":-0.07223666552039962,"104":-0.07075791926083186,"105":-0.03467850700053496,"106":-0.13560341824047784,"107":-0.011504892960080604,"108":0.1217260757203686,"109":-0.11710640822334692,"110":-0.07516749654230287,"111":-0.06078967062188514,"112":-0.11602722622244895,"113":0.12129712081150087,"114":-0.09112226644483878,"115":-0.09831161022313965,"116":-0.07840267928835437,"117":-0.05939127074260845,"118":-0.02590440362219792,"119":0.03494580820474681,"120":0.053422817788838735,"121":-0.04418306508028499,"122":0.005974849457709704,"123":-0.06064230682366025,"124":-0.05400911694992388,"125":-0.05463598770217487,"126":0.010105425418435048,"127":-0.0483312261189332,"128":-0.027200116614833014,"129":-0.08525904213489552,"130":0.14655120385174927,"131":-0.013617175765124367,"132":-0.035479564160076894,"133":-0.021174176455846034,"134":-0.16488273866423364,"135":0.040257743948648124,"136":-0.14894786562065657,"137":-0.05855819042555583,"138":-0.10624861830685814,"139":-0.0976156055125095,"140":-0.12680085585387,"141":-0.13244295236367581,"142":-0.17744842208205208,"143":-0.09142195888589291,"144":-0.03636982943644321,"145":0.05069136093322041,"146":-0.015345055624701716,"147":0.04458830815282264,"148":-0.05876037882374524,"149":-0.0502546509695876,"150":0.045895018908407366,"151":0.06377044334795408,"152":-0.06849470292115876,"153":-0.012411732092539518,"154":0.03298465881843486,"155":-0.02833442499551577,"156":-0.06658398859198635,"157":0.14417210777370837,"158":0.03261534388725153,"159":-0.02301139655220641,"160":-0.05620341684184332,"161":0.001202908170898405,"162":-0.03168744726208816,"163":0.0977580580565681,"164":-0.06869222475920121,"165":0.10924168892192067,"166":0.0088703563948569,"167":-0.06032230356188222,"168":0.038222478535376574,"169":-0.14555425882136724,"170":-0.066683770699924,"171":0.10792759682090501,"172":-0.12438853689706418,"173":-0.11737641516411612,"174":-0.07596463927036046,"175":0.08064157801498467,"176":-0.057389254993937974,"177":-0.065276367401088,"178":-0.05395246015578968,"179":-0.005412258762592484,"180":0.003467448019113759,"181":-0.14823512913934012,"182":0.036959086797461634,"183":0.04625767309222751,"184":-0.055498776118906384,"185":-0.07461882020684028,"186":-0.14264609648007268,"187":-0.08312943410041918,"188":-0.03412789433644921,"189":-0.06594744528485051,"190":0.05681481914750286,"191":0.041777000339062814,"192":-0.12547293724436392,"193":-0.08545848308082651,"194":-0.0024086758723794416,"195":0.013889080038112425,"196":0.005191107066061209,"197":-0.10359683739004368,"198":0.007361264004329054,"199":0.0343423257246453}},{"sx":5,"sy":5,"depth":8,"w":{"0":-0.06954720395097357,"1":-0.035070253382654536,"2":0.05925901408346297,"3":-0.016918265371535342,"4":0.14584974814380516,"5":0.026856808939714268,"6":-0.1520678781065524,"7":-0.005890316678480583,"8":0.0912930160043539,"9":-0.02916835341326891,"10":0.009797310511512254,"11":0.1300737441131024,"12":0.019119683762493705,"13":0.0877134556155735,"14":0.03925931889506021,"15":-0.06333635509455061,"16":-0.02567843378405409,"17":-0.002316598414023541,"18":0.09489120657684755,"19":0.09332443947412525,"20":0.003858002345386939,"21":0.0014302846566289838,"22":-0.21552841132835793,"23":0.02051654819584923,"24":-0.031876115479658386,"25":-0.18457155739761857,"26":0.017042228948012397,"27":-0.08452663155837008,"28":-0.07958395624183368,"29":0.013249878742118385,"30":-0.07128614639633628,"31":0.04840900693384703,"32":0.12258546020981399,"33":-0.12214764606003976,"34":0.07780504942882312,"35":0.035180851377482975,"36":-0.04232993329030942,"37":-0.07884990730288971,"38":-0.02929150548220388,"39":-0.0236089259633324,"40":-0.1168301715490711,"41":-0.13060842746500362,"42":-0.04666359289421082,"43":0.14508430188224972,"44":-0.020726616839320554,"45":-0.008001209106435354,"46":0.13544394989456215,"47":-0.07689005242040252,"48":-0.10247277100374194,"49":-0.03687145862452567,"50":0.08536403780648932,"51":0.22828421990404085,"52":0.021780307583847767,"53":0.02985212238198674,"54":0.06421594147203867,"55":-0.05815863067426712,"56":-0.10735148342144504,"57":0.057396096795904,"58":-0.05451268030009388,"59":0.19433622493126573,"60":0.04140773733425026,"61":0.04602718556291095,"62":0.06805396328332546,"63":-0.15574682654117214,"64":-0.14347495707176305,"65":-0.021393009878110644,"66":-0.036540887368609026,"67":0.0016409497739948034,"68":-0.041371687345353216,"69":0.13824027729754235,"70":0.036933047251758604,"71":-0.06968790240389407,"72":-0.09171389468129584,"73":-0.04636221810931924,"74":-0.11953770214821563,"75":0.1508725554016168,"76":-0.0171295694696937,"77":0.05820122827550656,"78":-0.034626140636432816,"79":-0.038079365708850225,"80":-0.037852024745367245,"81":0.09848076445661756,"82":0.04552996607621205,"83":0.16161316471327372,"84":0.1501624344474457,"85":-0.03410329070059813,"86":-0.05267380709099326,"87":-0.0978625302779394,"88":-0.017641966034921134,"89":0.024369006630812123,"90":-0.06241716924704046,"91":0.2646565584500194,"92":0.05713946690818856,"93":-0.06594520253099857,"94":0.09303504455011616,"95":0.06346886708985366,"96":0.13363239862556425,"97":-0.03410215904987296,"98":0.03888397815942438,"99":0.1015492393100556,"100":0.10838125555284006,"101":0.015530892085317678,"102":-0.0847667727183933,"103":-0.0642502040234893,"104":-0.0765177788391711,"105":0.07735495981229104,"106":-0.03554069099286582,"107":0.06498577562786247,"108":-0.11776537247486026,"109":0.042643932939591844,"110":0.024186638498097365,"111":-0.028229006154863394,"112":0.0110344059011766,"113":-0.0892378788219699,"114":-0.0010495009459893304,"115":0.03453852055634238,"116":-0.05424551112277622,"117":-0.012887781753774284,"118":0.026324932450111232,"119":0.06299361242428245,"120":0.07709669940789195,"121":-0.12345733384454637,"122":0.11059633938414984,"123":0.030413574231914122,"124":0.04091160522367639,"125":0.00785781409947254,"126":-0.02225697155056775,"127":-0.14474941161225008,"128":-0.009025905947633332,"129":0.13135421796398652,"130":-0.03582280894903626,"131":0.16666939351252172,"132":-0.06605159983001975,"133":0.13523766073309873,"134":-0.13269848882537574,"135":0.015867428817207128,"136":-0.011611397044892972,"137":-0.05516102484149128,"138":-0.046755841998010694,"139":0.19888001468324545,"140":-0.046659697035816086,"141":-0.02387595342226128,"142":-0.09080672099454652,"143":0.078540893100464,"144":0.07048450073964505,"145":0.02364999217049596,"146":0.060852484095892924,"147":-0.022926408964969627,"148":-0.03353593017467041,"149":-0.06458143113937202,"150":0.04598460984407053,"151":-0.018916792899292333,"152":0.04924282001880227,"153":-0.012075690628398944,"154":-0.023414623122712835,"155":0.09172205912174275,"156":-0.08421414559092227,"157":-0.05727567540421511,"158":0.012444983841611097,"159":-0.02533371046035924,"160":-0.04038715324447972,"161":-0.027796720041793663,"162":-0.0060363085865055045,"163":0.07246331456838703,"164":-0.11859711819499393,"165":0.014112777064592831,"166":-0.1337816279332062,"167":-0.021133984521428423,"168":0.04992595375623629,"169":0.01501370199829291,"170":-0.040289507389287216,"171":-0.00813438552505399,"172":-0.028059679617845116,"173":0.06755100742994105,"174":0.05302072393499252,"175":0.0262755366823661,"176":-0.0695699755423748,"177":-0.06293205814757097,"178":0.09163396889179107,"179":0.076989305669105,"180":-0.18762495597407305,"181":0.06805738788721512,"182":-0.06715314475367747,"183":-0.06710014500444282,"184":-0.09192161954580091,"185":-0.05940332973959647,"186":-0.03961486083553673,"187":0.009015415218093537,"188":-0.1437691361519813,"189":-0.005945950211589763,"190":-0.052038426065832345,"191":0.060762984968436046,"192":0.01528933949054674,"193":-0.03141488761396528,"194":0.04049521681653123,"195":-0.007938755767554765,"196":-0.0408805659608525,"197":-0.07363767353477374,"198":0.038846107535925586,"199":-0.025359391353672635}},{"sx":5,"sy":5,"depth":8,"w":{"0":-0.18260336743313668,"1":-0.010256117126163092,"2":-0.09880519673316818,"3":0.00441283763132609,"4":-0.06729540269352777,"5":-0.026119057863242957,"6":-0.06124427726105014,"7":-0.09406522600465034,"8":-0.08389479959044155,"9":-0.031169648609885674,"10":-0.15929522979411315,"11":0.10939587939471257,"12":-0.05200273126965374,"13":0.044023585091001176,"14":-0.01609798607163788,"15":0.021641182435461512,"16":-0.025671396954438208,"17":-0.05273103361715535,"18":-0.06709748096329757,"19":-0.06371983805144174,"20":-0.01943116044768987,"21":-0.20717645435956414,"22":-0.020508792367637127,"23":0.05179445084693369,"24":-0.004863997281104066,"25":-0.04643918115689092,"26":0.031554370804974606,"27":0.09366038114701922,"28":0.030015655720340213,"29":-0.002317724708603993,"30":-0.07001054018725304,"31":0.024347578697803338,"32":-0.18079930154913426,"33":-0.01945514988049855,"34":-0.10308829059573413,"35":0.07962202424211774,"36":-0.04208758845892254,"37":-0.03819691028604005,"38":-0.01906670099658936,"39":-0.02212008014614504,"40":0.016483641351431422,"41":0.012782278703139275,"42":0.030943901613454346,"43":-0.10715704037322443,"44":-0.041742764514278094,"45":0.057693953813058266,"46":-0.06498775447967313,"47":-0.09438504391422668,"48":-0.036151085328452716,"49":-0.04554026007480719,"50":-0.03732262118914687,"51":0.0485877604263799,"52":-0.03157418806271133,"53":-0.08754111920349229,"54":-0.10204130091943597,"55":0.1364380034328042,"56":0.10542649260036631,"57":-0.0947988989786497,"58":0.016565558360587696,"59":0.16476382986661567,"60":0.02060323194152993,"61":-0.040699105469258215,"62":-0.0641123845667803,"63":0.08827467303020729,"64":-0.047144836427690774,"65":0.022355626210213194,"66":-0.09199752744535816,"67":0.04025409719154724,"68":-0.08724607500928544,"69":0.05645898345850454,"70":-0.07545020468130519,"71":-0.14384127747625705,"72":0.034219382053818026,"73":-0.12526768929350898,"74":-0.08133205923019268,"75":-0.04056712872212438,"76":0.07019333079215302,"77":-0.14568741817267347,"78":-0.0640070157994258,"79":-0.11714974173905397,"80":0.016669618142944754,"81":-0.07870175230619873,"82":0.05224367082345446,"83":-0.08810955441200821,"84":-0.12250096811701995,"85":-0.011782830118228203,"86":0.04094593011810088,"87":-0.05138415351922866,"88":0.004035450827841272,"89":-0.09561713939522383,"90":-0.08239050245033559,"91":0.012961852673553792,"92":-0.09037312902813856,"93":-0.08563759717614146,"94":0.03560078988117205,"95":0.010131961710861594,"96":0.03601112227021159,"97":-0.0583480754145922,"98":-0.09428054774144624,"99":0.04842824073145157,"100":0.05550349969304116,"101":0.19517278481877634,"102":-0.05386166295884055,"103":0.18391081510346124,"104":-0.05646001432575857,"105":-0.03839627099793488,"106":-0.08527162416955252,"107":-0.0661017393556474,"108":0.0007710550785552397,"109":-0.13660371235173785,"110":-0.10284932258784299,"111":-0.03987212928611938,"112":0.07300397095136274,"113":0.06198648245061289,"114":0.01567627320945648,"115":-0.003085842942130323,"116":-0.021049165340404893,"117":0.10762394245076715,"118":0.02362277191804955,"119":-0.1692354699556198,"120":0.002381096654245335,"121":-0.07717422134914223,"122":-0.039095787613184614,"123":0.09666882054278879,"124":0.04580338799996073,"125":0.042909584528016784,"126":0.10181481963886463,"127":0.12267552352089334,"128":0.008998671452355701,"129":0.04016359321592299,"130":0.09395423956359175,"131":0.01999179164569896,"132":-0.0007394598884495594,"133":0.1407792327029751,"134":0.08033341011394048,"135":-0.011941454219117542,"136":-0.012194049107045553,"137":-0.013387413487231818,"138":-0.21272255335871224,"139":0.02582448659721325,"140":0.04872787280901387,"141":0.06396117245903445,"142":0.0444103023926288,"143":-0.012782057271419015,"144":-0.055355571708827045,"145":-0.12978101122045207,"146":-0.04233466259983484,"147":0.05995611944193378,"148":-0.13013807636698768,"149":0.01841275384590276,"150":-0.09286095530297485,"151":-0.05206292754873003,"152":-0.14860940140154363,"153":0.05555329569962037,"154":0.18484704005780714,"155":-0.03432230661697464,"156":-0.004436022894295978,"157":-0.11166474265004007,"158":-0.1063157248571681,"159":-0.04371905057366975,"160":0.0848542427723218,"161":-0.08412504352842555,"162":0.06483879800483353,"163":0.10883264023656114,"164":-0.029243815700840947,"165":-0.043257062428122994,"166":0.05185713883511543,"167":-0.025869011011371,"168":-0.14561930766928333,"169":-0.0035561303628117297,"170":0.01205504891704042,"171":0.12079164146156575,"172":-0.07458654097757035,"173":-0.04140696636151082,"174":-0.1478659156426382,"175":-0.043849656201078564,"176":-0.09054357153409144,"177":0.01847734241848225,"178":-0.06751131908578935,"179":0.003355996547909178,"180":-0.10878477897698705,"181":-0.16585429120650222,"182":0.00397788037164307,"183":-0.0958100397773232,"184":-0.057408245109119474,"185":-0.09615025475259889,"186":0.011125797842774957,"187":-0.2411796561393894,"188":0.12030867275244268,"189":-0.08167242466952135,"190":0.09440674868461103,"191":-0.007664904813477914,"192":0.002473460456380237,"193":0.059202741542954504,"194":-0.06540357615668717,"195":-0.02613314804394563,"196":0.05431712720872181,"197":0.04508898536293228,"198":-0.0069001986003423554,"199":-0.0657633140665898}},{"sx":5,"sy":5,"depth":8,"w":{"0":0.012758939584730077,"1":-0.03356366678152392,"2":0.05803098345784645,"3":-0.05990535047746642,"4":-0.012978522457472495,"5":-0.04961760648526236,"6":-0.02034121556059346,"7":-0.0043434606062782415,"8":0.10489469773819494,"9":-0.040891317043277434,"10":0.023399309921142343,"11":0.07522563053437291,"12":0.037241772600124436,"13":0.06838994381403672,"14":0.038842728737099826,"15":0.08627400563665166,"16":0.030699426658831807,"17":0.035523752451405474,"18":-0.12145981612117646,"19":0.07584955160965107,"20":0.022641692077387535,"21":0.06932687409436064,"22":-0.07006258943312357,"23":-0.049667319477266714,"24":0.06087145357091421,"25":-0.08633373108776826,"26":0.056216975308598385,"27":-0.004402575825024933,"28":-0.0011493459812876496,"29":0.08070321587098395,"30":0.02922687095614534,"31":-0.16479597498707255,"32":-0.05653710045070199,"33":-0.12695173083864877,"34":0.10410507850279914,"35":0.09428234414230757,"36":0.05751667135276216,"37":0.14220391997324805,"38":-0.056754612790372874,"39":0.002377400599496919,"40":-0.007401288666059108,"41":-0.06868930643464886,"42":0.03205849699939293,"43":-0.03105076107425386,"44":-0.07315569305285004,"45":0.04225738821827154,"46":0.11616159558418297,"47":-0.08771752877026477,"48":0.006306368752108171,"49":0.009252975861583733,"50":-0.08935887020649029,"51":0.0035387777640357807,"52":-0.04399707474795973,"53":-0.17220159337931007,"54":-0.053976548066359466,"55":0.038491903634728736,"56":-0.04925470715760855,"57":-0.03237077677203325,"58":-0.07334244186830385,"59":0.024439534078449596,"60":0.012858394625250267,"61":-0.10364639626672607,"62":-0.09676670721448118,"63":-0.00409397911672518,"64":-0.17430628449001387,"65":-0.0467289332252578,"66":-0.15041510357567695,"67":-0.11148137148498054,"68":0.010920207579389378,"69":-0.09857930954803848,"70":-0.01374071961818886,"71":0.008855224490564313,"72":0.00955369750841409,"73":-0.049544247977486744,"74":0.03424987819317478,"75":0.05903764099656738,"76":-0.01990240960300926,"77":0.09399843317013729,"78":-0.16140200455411163,"79":-0.03444261793834736,"80":-0.004631268035678758,"81":0.00004348051748598769,"82":0.06906213709332608,"83":-0.11647228405555503,"84":-0.014379028355978728,"85":0.017501437017817555,"86":0.07011603192695959,"87":-0.032292359626593374,"88":-0.12448420748637132,"89":-0.08880124922759566,"90":-0.08854181588775986,"91":-0.04121589457082927,"92":-0.06093562634547907,"93":0.023227189499591145,"94":-0.051471706651226364,"95":0.029875423962123917,"96":0.08330355346822901,"97":0.07942185863611637,"98":-0.030235241105722666,"99":0.0816346773201548,"100":-0.18384644772854025,"101":-0.06018435321728622,"102":-0.12104962740979698,"103":0.05744256990083874,"104":-0.09718261012614754,"105":0.01345945366215522,"106":0.03608103262522956,"107":-0.05073621095862272,"108":-0.06840094363152642,"109":-0.07310307220268257,"110":-0.09203223164932472,"111":-0.03287531649288355,"112":0.02048658538343104,"113":-0.03423657081534848,"114":-0.19032062414923476,"115":-0.23434913823102327,"116":0.0478164311300384,"117":0.06166883548741534,"118":0.03475007718820136,"119":-0.06488158902756568,"120":-0.14006655029153187,"121":0.024801951054555765,"122":0.049972403747333784,"123":0.12523861149524526,"124":0.07167268778845413,"125":-0.02307612434993217,"126":0.019709886941408822,"127":0.02863056058518146,"128":-0.22447575323060262,"129":-0.09011622771969814,"130":-0.0007937490467942333,"131":-0.07791441085809198,"132":-0.015538086586221392,"133":0.08250747384105171,"134":-0.14369097173729525,"135":0.02117435424898231,"136":-0.008700228670078585,"137":-0.07763570583346871,"138":-0.015906191864931054,"139":-0.1090254486828924,"140":-0.23300327332539844,"141":-0.12597593547050726,"142":-0.038160222011114575,"143":0.11293552681490401,"144":-0.13162880592546083,"145":-0.14858593144728244,"146":0.06320990602308542,"147":-0.06774413634702527,"148":-0.001376888581078092,"149":-0.07083130742307699,"150":0.029893760477002287,"151":-0.07775757727155568,"152":-0.037694448760595745,"153":0.03238867037457302,"154":-0.05848838964793673,"155":-0.07054144709696074,"156":0.07138602375201314,"157":0.0483094695721359,"158":-0.010401549289404316,"159":-0.09946236813686446,"160":-0.05474683702282462,"161":0.012950627190726073,"162":0.005805089388152543,"163":0.12634098354401221,"164":-0.0033902385069957868,"165":-0.014409191452094086,"166":-0.04104611974207009,"167":-0.07806661975375737,"168":-0.03024948207702702,"169":-0.009579694927015627,"170":-0.027128127772966484,"171":-0.1118639053889434,"172":-0.024617896060603942,"173":-0.05438947835188693,"174":0.02998864501069666,"175":-0.05072505490771602,"176":0.012621359294882699,"177":0.022810223467086672,"178":-0.126777753455688,"179":-0.15234149441048764,"180":-0.004236633001609598,"181":0.023797940752939915,"182":0.06876252777722143,"183":-0.05508310302764849,"184":0.0471260817181668,"185":-0.13307964642339756,"186":-0.005424129910532358,"187":-0.06357994851894737,"188":0.04016603154553169,"189":-0.018037142198784484,"190":0.07312149463173032,"191":-0.01864334437894273,"192":0.03140146979834077,"193":-0.03374488870174822,"194":-0.003174215654020848,"195":-0.033967532172111736,"196":0.056197805740529995,"197":0.017078495043186422,"198":-0.05301037462950893,"199":-0.0032075349768607864}},{"sx":5,"sy":5,"depth":8,"w":{"0":-0.06402522019319415,"1":0.02338428253798503,"2":0.055033434772765996,"3":-0.15472468795824731,"4":0.13248530703460276,"5":-0.02438789862723401,"6":-0.022753423359835243,"7":-0.009672568039392102,"8":0.01733434409944869,"9":-0.008883158853531886,"10":-0.17107716679086654,"11":0.040691846708266484,"12":0.06946934337643747,"13":0.05754427133815139,"14":-0.04927451777438169,"15":0.11930555721556023,"16":-0.0959410396428097,"17":-0.00792087412712265,"18":-0.06635673854296738,"19":-0.07525837390572568,"20":-0.030955794018433524,"21":0.014576594282062328,"22":-0.1138587696284631,"23":0.012224954027133356,"24":-0.08042266935107359,"25":-0.024864466200272342,"26":-0.012596854543643104,"27":-0.07196281528217649,"28":-0.21089499555603217,"29":0.023055020368404868,"30":-0.10940336395397278,"31":-0.02636209807199704,"32":-0.07798902369908188,"33":-0.15309083654834982,"34":0.12069289998644551,"35":-0.02637618295144074,"36":-0.09920897475193691,"37":0.053872284326890854,"38":0.07842447457828293,"39":0.02935444826068432,"40":-0.07308872401772656,"41":-0.11760222082629063,"42":0.006665907250559024,"43":0.15095970642292478,"44":-0.045183699139158644,"45":0.05729643875858891,"46":0.08518055113886529,"47":-0.07636785921835032,"48":0.050416002521506194,"49":-0.029842695340470526,"50":0.06419819103435218,"51":-0.060214962270048585,"52":-0.009653363004835451,"53":-0.05514966708769291,"54":-0.0042195477008888154,"55":-0.04432993160173431,"56":-0.09388371909724956,"57":-0.029889969232163076,"58":0.11554858959855918,"59":0.054941934970235966,"60":-0.17725727328971339,"61":-0.07881858696684056,"62":0.014683971017068214,"63":-0.05932350122856189,"64":-0.08668900113373505,"65":0.026062227370089532,"66":0.030113157437474697,"67":0.020115422771935683,"68":-0.04448402461389322,"69":-0.00022084388159564897,"70":0.003152122490772716,"71":0.012638976992443684,"72":-0.21366743820496575,"73":-0.11080709313194544,"74":-0.010610418307062466,"75":-0.0863145210492363,"76":0.002352250986753508,"77":0.11376366492379382,"78":0.0096312093824053,"79":0.001387808802816036,"80":-0.08734443059126863,"81":-0.11701545853901521,"82":-0.09318010373812123,"83":-0.016320554080372484,"84":-0.05975753404612308,"85":-0.026838123690303237,"86":0.016949571564973148,"87":0.04551278877087914,"88":0.0748744749125811,"89":-0.03423732655433726,"90":0.07655383036304886,"91":-0.0015398256977975113,"92":0.04291503782399198,"93":0.08529127773059464,"94":0.008917057352785281,"95":-0.040911119672416334,"96":-0.1466429559960671,"97":0.1371732547989951,"98":-0.05537505012996334,"99":-0.06294124753130557,"100":-0.019378693398227096,"101":0.13524885707003634,"102":-0.1261543803647913,"103":-0.06751892375324907,"104":-0.0004711267189126242,"105":0.02154604209308911,"106":-0.009867064063910766,"107":0.04644238656875885,"108":-0.13200678238567434,"109":-0.05963469200126729,"110":0.05949820221733071,"111":-0.15904315263511823,"112":0.04926224327468429,"113":-0.050052143550343355,"114":-0.040445777699635185,"115":0.023273031797331586,"116":0.19080000953228876,"117":-0.12296746459615712,"118":0.03824880833257924,"119":-0.004972745942209398,"120":0.017335831163504536,"121":0.04701771813469246,"122":-0.06358495644559478,"123":0.09320981297814095,"124":-0.057778622469301676,"125":0.05849565544075427,"126":-0.11747019395137646,"127":0.07491590006851817,"128":-0.06380627936856344,"129":-0.042338664571427743,"130":-0.0014694788277476525,"131":0.08491968202776197,"132":-0.139813842833815,"133":0.019208976501886223,"134":0.003874707684709181,"135":-0.08997043913239279,"136":-0.000908864267647795,"137":-0.17797253325767803,"138":0.0044415428517167,"139":-0.0589149969615339,"140":-0.07743346146721204,"141":0.04227844704999856,"142":-0.03366601703170616,"143":-0.039785850381878464,"144":0.10079984855418922,"145":0.017596379461563835,"146":0.023701965860317024,"147":-0.07036662933365449,"148":-0.00617154873421908,"149":-0.025152325936062214,"150":-0.011771555208065837,"151":0.03612276172473333,"152":0.022128922301147748,"153":-0.004047480539591351,"154":-0.023059738273125362,"155":0.05447542732216099,"156":0.0026378132331360713,"157":-0.02193951431552315,"158":0.02395209284745369,"159":-0.14346274029775347,"160":-0.032566396430395224,"161":0.08618800027794835,"162":0.02254587211137813,"163":-0.24728295806977152,"164":0.17659887132633612,"165":0.049800739177337336,"166":0.06464211262673786,"167":0.029088590124026564,"168":0.03780397992187403,"169":0.07883301191435176,"170":-0.027425705005124677,"171":-0.22451883249289922,"172":0.003552681032227829,"173":0.005596043683629837,"174":-0.06739934622550088,"175":0.037747526273468675,"176":-0.046857687373225314,"177":0.033438177610279396,"178":-0.08651783083905709,"179":0.048478995619966846,"180":-0.03548629448868167,"181":-0.01572639953858206,"182":0.07060862969847526,"183":-0.10257649824316288,"184":-0.11109497775861306,"185":-0.07850024743676627,"186":-0.003101433592342642,"187":-0.10688867242995523,"188":-0.17653148173727895,"189":-0.02769782390761481,"190":-0.10122326881294266,"191":-0.05879099903821528,"192":-0.027611084383954335,"193":0.03391050697046337,"194":-0.1019271275822938,"195":-0.17625116069897367,"196":0.08486268302776676,"197":-0.07144645935170954,"198":0.05203459514937093,"199":-0.09837458019343931}},{"sx":5,"sy":5,"depth":8,"w":{"0":-0.05863815482084782,"1":-0.043613236481846035,"2":-0.05743668871430546,"3":-0.0713397478374558,"4":0.08452442089585628,"5":-0.0737194926889987,"6":-0.050963019729995396,"7":-0.050404433716582646,"8":-0.023338649102165872,"9":0.14467429275094373,"10":-0.04128837289434822,"11":0.1622460430563109,"12":0.021164076207750078,"13":-0.09777604028093413,"14":0.07365166991661881,"15":-0.034394818312920274,"16":-0.11967193162173027,"17":-0.06277394687029172,"18":-0.028809847658086498,"19":0.08994171210307503,"20":0.05828709694099951,"21":0.03141822877027898,"22":-0.04300531851384064,"23":-0.018021366201529998,"24":-0.060385275701263535,"25":0.04418134384480642,"26":-0.08479400829843046,"27":0.1370039503410871,"28":0.004051722651681133,"29":-0.019573626881958763,"30":0.09128867270022978,"31":0.05285016924319984,"32":0.053082256749025766,"33":-0.04537587220388505,"34":0.09610651114530643,"35":0.1781529074281772,"36":0.05612277038123676,"37":-0.012587059382644625,"38":-0.14210764703649076,"39":-0.01811747565003937,"40":-0.03642256987923254,"41":-0.038797231934926436,"42":-0.09488385560774057,"43":-0.08883382425344527,"44":0.02036491061740307,"45":-0.031941357017120045,"46":0.012512379547058064,"47":0.04180141761709066,"48":-0.11304210330285606,"49":-0.02445697416131261,"50":0.12387521406862753,"51":0.09528999665163887,"52":0.023010925877654978,"53":-0.08345503887363555,"54":0.0008421951585887515,"55":-0.03025717623138419,"56":0.13565213611088978,"57":-0.03295913618800782,"58":0.10696003317865803,"59":0.016029156409143607,"60":-0.03325508591719339,"61":-0.14935518193606448,"62":-0.02035954277951614,"63":0.11312147211338452,"64":0.05283297089376952,"65":0.07773887940730724,"66":0.030460931234597807,"67":0.02377409623097864,"68":0.0864021253028435,"69":0.05102309341051157,"70":0.01045153704907347,"71":-0.02660023655022872,"72":-0.03793553146574901,"73":-0.02103245224807266,"74":-0.10671208096927948,"75":0.017445297818354705,"76":-0.08005671572657598,"77":-0.0656316591584604,"78":-0.24831810573240706,"79":0.12906060104548722,"80":-0.021583965070727143,"81":-0.08948050154659255,"82":0.041739653821606236,"83":0.05893553266472092,"84":0.013399558643145099,"85":0.011868769659043862,"86":0.06461699902633274,"87":-0.008551125777316704,"88":-0.020518765005842324,"89":0.07690829955366038,"90":0.025104489555187588,"91":0.0891381261338,"92":-0.06578095947459067,"93":-0.08370108253244402,"94":-0.10701500082106721,"95":-0.023939598332955576,"96":-0.07369244388197412,"97":-0.041443716780084905,"98":-0.011073953975450804,"99":-0.028376173286503346,"100":-0.009867601461610608,"101":0.03727279526507588,"102":0.07991784313168358,"103":0.11871112475402712,"104":-0.0258226385052627,"105":-0.01964620717471563,"106":0.06251606683550726,"107":0.06901657727603266,"108":-0.11441739660984916,"109":0.09259310547284204,"110":-0.021629789860105577,"111":-0.026939684592124098,"112":-0.00867416061412209,"113":-0.051291346672567247,"114":-0.0029925054688543437,"115":0.022839448128433852,"116":0.002396832720463658,"117":-0.010634392262597719,"118":-0.12960489944626333,"119":-0.16558394307238766,"120":0.058086666694813646,"121":0.007807026669595403,"122":-0.026354130916219628,"123":0.06990679769314875,"124":0.014138765291559616,"125":-0.0346432740829282,"126":-0.13927456640682906,"127":-0.014070922957312753,"128":-0.008413749995105276,"129":0.04609247295798768,"130":0.01749493931191062,"131":-0.06188690389124085,"132":0.016936215102684535,"133":-0.0802122108912176,"134":-0.16228433554051977,"135":0.05888241503658735,"136":-0.014380954989537252,"137":0.06637190512434102,"138":-0.05225271513530989,"139":0.012920089993913548,"140":-0.07073603256964006,"141":-0.04287104316858302,"142":0.021085340064532346,"143":0.06005635868078208,"144":-0.02439485009889165,"145":0.03095898408418956,"146":-0.0007735041257523477,"147":0.04301209250988048,"148":-0.014894226641955916,"149":0.0011294902899457145,"150":-0.09295016807243167,"151":0.04050698645135609,"152":0.035110893807479324,"153":0.10325140534851401,"154":-0.044110573380542875,"155":0.04635193842288221,"156":0.06642311400285178,"157":-0.004829801821636174,"158":0.05808447953022197,"159":-0.051677594252123045,"160":0.12100492328368152,"161":0.007335665860242046,"162":-0.0007285299235136797,"163":0.12412284605384728,"164":0.026053088313254997,"165":-0.07215250419017823,"166":-0.0830873295121953,"167":-0.004143405853889117,"168":-0.0838971822784099,"169":0.019649692289649513,"170":0.041593448516351945,"171":0.12098097586504362,"172":-0.03541784056136113,"173":0.08570820572626728,"174":-0.013026298530018325,"175":0.02802124078072718,"176":-0.09292995684437388,"177":0.06934923581446183,"178":-0.1559356043392341,"179":0.04922172777936473,"180":0.04946461246101059,"181":-0.047396028363956136,"182":-0.009924144262329224,"183":-0.09247168468236762,"184":-0.10712638042790328,"185":0.08362349072293913,"186":-0.1842230990814825,"187":0.013899795412336834,"188":-0.0254491035388999,"189":0.02705701411334731,"190":0.04032620985353447,"191":0.08553520458410131,"192":-0.21609080873034905,"193":0.07754469049550536,"194":-0.05852706190344987,"195":-0.07589513800409868,"196":-0.06830347343359222,"197":0.028471616475599655,"198":0.004393996815453868,"199":0.03256147555985053}},{"sx":5,"sy":5,"depth":8,"w":{"0":0.09530943585143124,"1":-0.07898174282206304,"2":0.026551642072091756,"3":-0.037577668416377406,"4":0.010014213819662748,"5":-0.09629019727934832,"6":-0.049336190319495425,"7":-0.04080047156398807,"8":-0.013362276994478338,"9":-0.08685707552399671,"10":-0.024895507856121563,"11":-0.14855603029568057,"12":0.12782099751828105,"13":0.060454226640181886,"14":-0.015729720654644,"15":0.08372591625972077,"16":0.06476680156112602,"17":-0.04862579993016187,"18":-0.03026579065041062,"19":-0.07852996800108263,"20":-0.04666365190940805,"21":-0.06177207319035067,"22":0.008219071361742502,"23":-0.07241005451414523,"24":0.02930977513754869,"25":0.04016996445670173,"26":-0.06421979661013438,"27":-0.03774601330963552,"28":0.06922761368029082,"29":0.03825649046843047,"30":0.08324431050805005,"31":-0.0828509805271124,"32":0.04101346475460174,"33":-0.045302606904025204,"34":0.021007792541637677,"35":0.20725669953050893,"36":-0.0016285730202284013,"37":0.005825903954501386,"38":0.02923810372973725,"39":0.026948160090909903,"40":0.03012479232788745,"41":-0.03136806126033368,"42":-0.015585522704963103,"43":-0.1026580246439756,"44":-0.012648037559113227,"45":0.022047467812302837,"46":0.08503484123558658,"47":0.04762534224718725,"48":-0.043870001326361346,"49":0.07477391975425397,"50":-0.016684546453001565,"51":-0.0907970362754594,"52":0.025660271348294426,"53":0.02969781053399785,"54":-0.1848041837556716,"55":-0.0418157765617306,"56":0.12258424961142327,"57":-0.03182184992515998,"58":-0.06386715957769569,"59":-0.033252857161716956,"60":0.01727899253277561,"61":-0.05025331512154645,"62":0.0617414549728844,"63":-0.007418790954483816,"64":0.05807517769104975,"65":-0.12398027330403834,"66":-0.04733527123547374,"67":-0.041193021224902954,"68":0.006171801583988373,"69":-0.05739976500095788,"70":-0.02807858548031021,"71":-0.03325979154794337,"72":-0.03878758869661868,"73":0.015150294862479192,"74":-0.015524118494587966,"75":0.13768678220892588,"76":-0.054274553420225684,"77":0.013036768066855825,"78":-0.028654509123437658,"79":-0.051949904390893524,"80":-0.09593077361510936,"81":0.03147905670249595,"82":-0.13014712285820057,"83":-0.17058888424639,"84":-0.10337571798990398,"85":0.14018402652208148,"86":-0.012478567000594085,"87":-0.09155197173588768,"88":0.003987216689462344,"89":0.009975987488777132,"90":0.03327229168854399,"91":-0.06382634967465985,"92":-0.04250220891035736,"93":0.06142828055716634,"94":-0.07123454078254421,"95":0.043689705532944136,"96":-0.028829625508922225,"97":-0.15817303698669918,"98":-0.03562691315314209,"99":0.04990754461847715,"100":-0.1438565185432129,"101":0.1086993989408408,"102":-0.08698246243969934,"103":-0.044589940140866015,"104":0.0621675302391495,"105":0.06534623190755623,"106":-0.06998898132236102,"107":0.06931353845933205,"108":-0.07929521840643433,"109":0.009210760332380928,"110":-0.09074676074433094,"111":0.00991310898666277,"112":0.014189797388839236,"113":-0.0663366446030585,"114":-0.01747872274319082,"115":-0.047175162882207994,"116":0.013989072374515193,"117":-0.017440517295697008,"118":-0.0031190142131874233,"119":0.030507203338552953,"120":-0.12195975752489842,"121":0.0959991553825178,"122":-0.011695529126208503,"123":0.07058038439560226,"124":0.006601468213321634,"125":0.004541440512240919,"126":-0.07557719413968067,"127":-0.04279061836523369,"128":-0.06595686685947012,"129":0.10128310794480037,"130":-0.079710230319022,"131":-0.031141598641705806,"132":-0.043099341313835186,"133":-0.10685105207031088,"134":0.12065341956110986,"135":0.017802406141279096,"136":0.07566935723239586,"137":-0.007129529447414651,"138":-0.0463658216460577,"139":-0.087594043497877,"140":-0.13718948864186656,"141":0.09208264710799859,"142":-0.05082198694815989,"143":-0.03629786976505365,"144":0.000974957011704671,"145":0.01410780238715216,"146":0.0687978094543889,"147":-0.0875037651198497,"148":-0.045853119344298886,"149":0.026847626205103482,"150":-0.0713644971982482,"151":-0.12353642414981526,"152":-0.045648383104913384,"153":-0.009173387841916913,"154":-0.07129946256579062,"155":0.0016684859478238723,"156":-0.028729164641341745,"157":0.04118550823771975,"158":-0.048544705008686996,"159":-0.12431066142567071,"160":-0.08449847483198894,"161":-0.013440304254394991,"162":-0.020897712364985766,"163":0.027047841933286847,"164":-0.01913553844479931,"165":-0.038472720966874124,"166":-0.07597973894236058,"167":0.002500942477715237,"168":-0.05919435948456812,"169":-0.1947523890388264,"170":-0.016940698984778707,"171":-0.028272164844005614,"172":-0.025684531797583128,"173":0.024172831402277727,"174":-0.03459671480774528,"175":-0.029979810837981218,"176":-0.15457969739368438,"177":-0.07179610153956116,"178":0.10779169068772686,"179":0.012672794375193055,"180":-0.04900678091317445,"181":0.015036557033473029,"182":0.05340492169114192,"183":0.08048957932952479,"184":-0.13855223130247143,"185":-0.03873098812376099,"186":-0.2286685968623354,"187":0.037234589537986085,"188":0.0321012130233021,"189":0.12638786620695222,"190":-0.003896803779424778,"191":0.1366682639054281,"192":0.03908160237607313,"193":-0.05972858405616131,"194":-0.032038693505216966,"195":0.033987803037618704,"196":0.03436313002775584,"197":-0.057957893495066456,"198":0.09538827139517979,"199":-0.0556759426037923}},{"sx":5,"sy":5,"depth":8,"w":{"0":-0.07796598221939043,"1":0.07631055821587078,"2":0.001558854372515706,"3":-0.029251214477945722,"4":0.014588451813081275,"5":-0.06476480095557258,"6":-0.0009056760148576211,"7":-0.08512872949982443,"8":0.01388091294302047,"9":-0.18294479155054158,"10":-0.05816854555851899,"11":0.10941227039122599,"12":-0.008829836689065167,"13":-0.054818776719688704,"14":-0.06841661530277424,"15":-0.08041269812416411,"16":0.0006582467091369578,"17":0.014951079306935337,"18":-0.08369789051705015,"19":-0.1473096128640774,"20":-0.11874114278077524,"21":-0.03226988367717701,"22":0.02822390511040253,"23":-0.08195365938242734,"24":0.020860954229036614,"25":-0.007483336690083031,"26":0.0374790211080879,"27":-0.07008496667328117,"28":0.04209586322222534,"29":-0.05160774232427932,"30":0.12232619452812635,"31":0.12190133490484217,"32":-0.01769938724495032,"33":0.060712113762363885,"34":0.11388532161042526,"35":-0.02133459530379924,"36":-0.037924497623769766,"37":0.04182348198689805,"38":-0.04448036407958078,"39":0.0010725458818700894,"40":-0.07374001364675929,"41":-0.004486836006095399,"42":-0.03788122286859571,"43":-0.036263529030153216,"44":0.049907985073918595,"45":-0.04971305703279318,"46":0.015191271224368412,"47":-0.03677516006249694,"48":0.004249058016046524,"49":-0.012285085498714422,"50":-0.010955146914692316,"51":-0.02852973659616357,"52":0.09349365330396611,"53":0.024988097196270966,"54":-0.09149581202176003,"55":0.09748615810782982,"56":-0.00813248338790945,"57":0.07673619365255298,"58":-0.19552653217117485,"59":0.037619036408334645,"60":-0.006652871068503296,"61":-0.0632133870565075,"62":0.0757581518433819,"63":-0.0541046370778064,"64":-0.03229779401968289,"65":-0.10328265463553682,"66":-0.006206484944915396,"67":-0.05778756950566234,"68":0.00544191410410378,"69":-0.08894506110029754,"70":-0.026374878488365432,"71":-0.16604417520507528,"72":0.05055966492090213,"73":0.0037394368611887757,"74":0.03254712925366093,"75":-0.026657700589322254,"76":-0.21365680670114662,"77":0.02967612030401995,"78":0.020206004883188463,"79":-0.03463618014612777,"80":-0.03451802333528094,"81":-0.005184836521410931,"82":0.002203061141925035,"83":-0.08143576137458951,"84":0.024580914886619336,"85":-0.04163569671048877,"86":-0.137720609971466,"87":0.08840646986231453,"88":-0.0012677408879384659,"89":0.03299371961193018,"90":-0.05935030176892602,"91":0.010338505976276967,"92":0.010157437431487452,"93":-0.0033780191335246283,"94":-0.14504417507294973,"95":-0.1629302278367467,"96":-0.07937566752925881,"97":-0.14443747202930887,"98":-0.016549775476760856,"99":-0.09370346162073716,"100":0.08755445898740909,"101":0.01627654892227006,"102":0.06272297530165342,"103":-0.04236702818347755,"104":-0.02572976035493312,"105":-0.02269954179612446,"106":0.042616349435451256,"107":0.0012861570602622633,"108":-0.03969467903998246,"109":-0.07035048232737498,"110":-0.02108415028002187,"111":-0.002131784133991791,"112":-0.0688105570703532,"113":-0.11980826406776539,"114":-0.010677673112492679,"115":-0.035352362387688074,"116":0.07400872716321412,"117":-0.03957422971142954,"118":-0.1266283593926326,"119":-0.03198645155859254,"120":0.0039608437233023845,"121":-0.10316359886065359,"122":0.018379988818987586,"123":0.006338622729136145,"124":-0.03955028713763932,"125":-0.035383945089704105,"126":-0.03782554860638229,"127":0.04786672381318125,"128":0.034805573271702056,"129":0.027538342090392288,"130":-0.06767722263049264,"131":0.019817634838232814,"132":0.10568546413538894,"133":0.06630676243730577,"134":-0.013083523133579552,"135":0.029298072028129486,"136":-0.08597916060815272,"137":-0.0012879662971200469,"138":-0.01652047727628622,"139":-0.07701132102487328,"140":-0.09817459022239577,"141":-0.07407629292767287,"142":-0.05323270781564248,"143":-0.030580100197408384,"144":-0.056946223723702366,"145":-0.01975594007040524,"146":0.0337219080891769,"147":-0.0880551519593379,"148":-0.043589076581736046,"149":0.04848281039579121,"150":-0.11621051790800856,"151":0.05419847698507881,"152":-0.0384140615870439,"153":0.03173922854263321,"154":0.03155470094557499,"155":-0.1010943566590362,"156":0.0383171078624917,"157":0.05757101305657808,"158":-0.1247009210955237,"159":0.04268443230598785,"160":0.09817526196287402,"161":0.02815660406128728,"162":-0.01427475744033362,"163":-0.07689562460151843,"164":0.011462969645766192,"165":-0.11602754374976172,"166":0.013958059212896582,"167":-0.09911922039204854,"168":-0.05043281255453743,"169":0.0025229599348644215,"170":0.11263881650576979,"171":0.04318982823873463,"172":0.002341668306086983,"173":-0.015953411021232815,"174":-0.05626732479567101,"175":-0.02601356991861468,"176":-0.06453948288440642,"177":-0.055670077147713826,"178":-0.0408588268368303,"179":0.14033872351687596,"180":0.1648901459897262,"181":0.010407605591477413,"182":-0.143321612401919,"183":0.05405762450466631,"184":-0.05138910648380206,"185":-0.004458529683740067,"186":-0.06424893402483357,"187":0.09193402073650908,"188":0.005190273069559657,"189":0.01507519141349149,"190":-0.11227655432004155,"191":0.06845998490915027,"192":-0.16139595217179054,"193":0.0784413716965689,"194":-0.18557028357393207,"195":0.05588558595111959,"196":0.07702188790702168,"197":-0.0810226471886721,"198":-0.0881656366622416,"199":-0.12614171529849366}},{"sx":5,"sy":5,"depth":8,"w":{"0":0.06837937630782509,"1":0.1014819592545471,"2":-0.03477224711177365,"3":-0.0005258155214291247,"4":-0.0950734427158632,"5":-0.0244872222300929,"6":0.025779940526244372,"7":-0.002998953716006335,"8":-0.11032608399112101,"9":-0.05253078300352817,"10":-0.10927738073120996,"11":0.05554816293076907,"12":0.047859876193215106,"13":0.02952128543099169,"14":-0.0920673003246962,"15":-0.11679860041710179,"16":0.13402188066694745,"17":-0.04157525219544821,"18":0.059041119425373906,"19":0.06544779336319713,"20":0.05749940631050502,"21":-0.00951792499743085,"22":0.01793268865427959,"23":-0.09318473912330207,"24":0.08425406935956217,"25":0.04663640358807959,"26":-0.09211128384514088,"27":0.01612437739046309,"28":0.014604052504217375,"29":-0.06688387487164833,"30":0.009609471571317203,"31":-0.06524596769595746,"32":-0.029191909325417514,"33":0.03541900959687177,"34":0.09261524766039543,"35":-0.015800842890377816,"36":-0.05508983149732265,"37":-0.05646943556223182,"38":-0.04086606916974493,"39":-0.07257022163907514,"40":-0.10082426321688163,"41":-0.14567705762781036,"42":0.1450950848571566,"43":0.1197016805648834,"44":0.06867544353886851,"45":-0.006921330105798326,"46":0.007427477126801896,"47":-0.01804488388720158,"48":-0.029484433475083408,"49":-0.020901431936279524,"50":0.08190431238301403,"51":0.03437552910298581,"52":-0.04143366735578934,"53":-0.17018802795535812,"54":-0.01271493510959203,"55":-0.13795916413956436,"56":0.03435348073962443,"57":-0.02086599379836078,"58":0.06398914323509551,"59":-0.0900087687154907,"60":-0.09391039064523697,"61":-0.000808315832751063,"62":-0.03107815648993977,"63":0.005784098587007033,"64":0.013189438195326563,"65":-0.020558293836153138,"66":-0.046594422932884814,"67":0.012918669471056325,"68":0.01858179581241386,"69":0.10889756431838993,"70":-0.027117250649080507,"71":0.03858906057538029,"72":0.041594999852274425,"73":-0.08895112306236712,"74":0.04755434069877945,"75":0.03693650792149518,"76":-0.017716256003261217,"77":0.07168109412438979,"78":-0.04961124984694716,"79":0.016058247416512423,"80":0.002159898588751325,"81":-0.07995668507240629,"82":-0.060875785074370366,"83":-0.04542290164960336,"84":0.044419541525369075,"85":-0.04874705703276319,"86":0.007600062429016691,"87":-0.04155209596699418,"88":-0.0828819959994306,"89":-0.0359079016485856,"90":-0.10821526471219065,"91":-0.02331699771116276,"92":-0.003998695332581561,"93":-0.00841153696122062,"94":-0.03068015083333056,"95":-0.027654124391134915,"96":0.10065527489824651,"97":0.00041447762013689226,"98":0.00778075157939421,"99":0.09023952235140323,"100":-0.046812354953422536,"101":0.02381898771944479,"102":0.04201165784089366,"103":-0.026453754429623083,"104":-0.030755854997944736,"105":0.021943479463589623,"106":-0.03170701528550955,"107":0.02231390255831871,"108":0.08797249103157348,"109":-0.14673626501204742,"110":0.0362851594832961,"111":-0.06539335074110997,"112":-0.07810505451209353,"113":-0.09252821817767619,"114":-0.006407967794246186,"115":-0.0977799075857409,"116":-0.01183792292803634,"117":0.00446917113312065,"118":-0.1030091890778547,"119":-0.14445122627124163,"120":-0.05305803542301944,"121":-0.02122592939584305,"122":-0.0009817791222961941,"123":0.023691320384772747,"124":-0.012016507384396326,"125":-0.013739378568742192,"126":0.0704126388643405,"127":-0.08281488072859894,"128":-0.10334105518022146,"129":0.05855808368165259,"130":0.08304750308686355,"131":0.03274032987610337,"132":0.04711161097179671,"133":-0.07753007511936201,"134":-0.07280697120163077,"135":-0.06872153570113064,"136":0.0024035807248215845,"137":0.0439830212363274,"138":-0.0342930805742072,"139":0.22587165825122604,"140":0.025124974582311048,"141":0.002885071116200291,"142":0.007380053403178006,"143":-0.08989550679605207,"144":-0.10038365561943834,"145":0.02171738191374913,"146":0.09761776272773162,"147":0.0681078453800996,"148":-0.027599044416525238,"149":-0.06983620994916724,"150":-0.04517793702074643,"151":0.03787520042788539,"152":0.011764591357703866,"153":-0.05411813467704033,"154":0.04809768870430139,"155":0.15735700824319693,"156":-0.03742771697367402,"157":-0.1080864445645643,"158":-0.07261982610326284,"159":0.03862274063457912,"160":-0.013884157790781388,"161":-0.19375890351377698,"162":0.05817219177449181,"163":-0.08466034789572438,"164":-0.0011039370432043261,"165":0.05447830660785572,"166":-0.04864306545534898,"167":0.009077189462195294,"168":0.0163294138202053,"169":-0.04743819070254217,"170":-0.05984785372125733,"171":0.04133541260881873,"172":-0.04551389900861687,"173":0.06088215846031449,"174":-0.03378112507534145,"175":-0.15683664285410784,"176":0.011893913107952467,"177":-0.071094850471676,"178":-0.05818632509892004,"179":0.05253868259407854,"180":-0.11452936487007973,"181":-0.02733217635196312,"182":-0.175422045452453,"183":-0.09941721163005751,"184":-0.008843131446522472,"185":0.11321315329404051,"186":0.015294510950567494,"187":0.012374425059088262,"188":-0.04249360506714318,"189":0.02769312539915659,"190":-0.08025973438997501,"191":-0.0497540734277023,"192":0.09217760259434396,"193":-0.04978842381942956,"194":0.0651317859913396,"195":-0.06079373565884212,"196":-0.07374749813943958,"197":-0.01962328586631366,"198":-0.02624276037850279,"199":0.04983699331337011}},{"sx":5,"sy":5,"depth":8,"w":{"0":0.0031010356467075523,"1":-0.07542019010022413,"2":0.0662509601355944,"3":-0.014842487063010534,"4":0.01422759908432004,"5":0.05807765626946871,"6":0.012372579746664527,"7":-0.06261062489310863,"8":-0.18041970384589293,"9":-0.05199166402805977,"10":0.013314463006249364,"11":0.006300699004792216,"12":-0.008703251820113505,"13":-0.006019536718370679,"14":-0.18096394487793574,"15":-0.06128983272651613,"16":-0.1692855345522963,"17":-0.04661423125085597,"18":-0.07805166678156121,"19":0.03327196329394639,"20":-0.0001120391633828922,"21":-0.004598538504941307,"22":-0.11996285799195947,"23":-0.07589655647479455,"24":-0.00358015715878362,"25":-0.013152810656127245,"26":0.028644820879879938,"27":0.15520520975781132,"28":-0.1656582731090553,"29":0.07553359974422458,"30":-0.10420714336193293,"31":-0.007950043968222435,"32":-0.0650361687798359,"33":-0.1788038932614792,"34":0.03181423852770006,"35":0.16523611660507773,"36":-0.006240692788779888,"37":-0.14575712001765656,"38":-0.007310278316503041,"39":-0.08419037596708143,"40":0.01977131689937742,"41":-0.04974463163019365,"42":-0.06554256331305239,"43":-0.06508619563106009,"44":-0.03597953318729276,"45":-0.001995207527656988,"46":0.09973227596746576,"47":0.05556786460971632,"48":-0.0638301606942381,"49":0.1106393243020927,"50":0.007799242168685313,"51":-0.06073569493913308,"52":-0.09107327845703544,"53":-0.04056496003592423,"54":-0.04753589231090859,"55":0.003008819172195986,"56":0.016641514685145097,"57":0.03780028982659712,"58":-0.0621134321157116,"59":-0.03805827812837005,"60":-0.04960664781503212,"61":-0.08395101554396356,"62":-0.08829080168707873,"63":0.00043170563714047894,"64":-0.0641942254418559,"65":-0.028077256750847775,"66":0.03730220710508204,"67":0.06924954550532347,"68":-0.10536169799702941,"69":-0.07294207776228061,"70":0.03737700211345216,"71":0.008277097397252535,"72":0.04463576913028915,"73":0.036786122735933076,"74":-0.14879565581083748,"75":-0.0789644349536713,"76":-0.009415935743028129,"77":-0.11154664181301387,"78":-0.06209124581806255,"79":-0.09354923475061548,"80":-0.00649505201686598,"81":-0.1320447706246676,"82":-0.03736531634276594,"83":-0.05753972838676094,"84":0.07026377083876689,"85":-0.04037271119511946,"86":-0.07971049656413844,"87":-0.05618595425215216,"88":-0.005286765570371265,"89":-0.1140030925321629,"90":0.0020341102540249573,"91":0.02961173732067573,"92":0.05867643383031679,"93":-0.09827816561370109,"94":0.06860574146177824,"95":0.0249037484708681,"96":-0.03189560875177325,"97":-0.04952348693615281,"98":-0.0896371605694125,"99":-0.059585899007029985,"100":-0.05245891881909603,"101":-0.022726478262939227,"102":-0.10605389802849084,"103":-0.1020259434922081,"104":-0.04338747498337441,"105":-0.14547813674698246,"106":-0.07308958071583019,"107":0.07634152605113435,"108":0.1190566002238533,"109":-0.09358424211304693,"110":-0.024999572095047315,"111":-0.04337704000182648,"112":0.025392526919613308,"113":-0.09284436836677397,"114":0.06889641992128459,"115":-0.10260596015258165,"116":-0.014281833923484687,"117":0.08736602782759437,"118":0.015238675739879425,"119":0.020172865796643374,"120":-0.008194236040743423,"121":-0.08114090935373366,"122":0.08044816451493492,"123":-0.00024358948302229512,"124":-0.07162770345649036,"125":0.04396706538116298,"126":-0.17114626911428174,"127":0.0722740441988271,"128":0.04266188163484926,"129":0.09143069557662133,"130":-0.07131968409385496,"131":-0.035778426524662336,"132":-0.011380616537592238,"133":0.11358283064938886,"134":-0.021774656535549445,"135":-0.03290321300845127,"136":0.004204242726244707,"137":-0.1360217535981191,"138":-0.0010131859076503037,"139":0.020478823554918823,"140":-0.07426882290718387,"141":-0.025521658265222825,"142":-0.019749091235835493,"143":-0.07099525481535311,"144":0.12340482344686866,"145":-0.07360230105904457,"146":-0.023779812559312257,"147":0.017527355010907495,"148":-0.026090261367852287,"149":0.17442409433689463,"150":0.004307838979624784,"151":-0.04913932730707082,"152":-0.04677859240857066,"153":-0.009274322604860566,"154":0.0062345451541221085,"155":0.03576971152911715,"156":-0.010564387941564151,"157":-0.06750824931004608,"158":-0.023540426011773155,"159":-0.09958854113688194,"160":-0.0021389584982008485,"161":-0.002052201745250038,"162":-0.13136417316692187,"163":0.13448474212541509,"164":-0.07631443097768087,"165":-0.05605353435813069,"166":-0.029332409987737205,"167":0.0186214155624222,"168":0.017849256671180178,"169":-0.10497473539299301,"170":-0.04601618169121191,"171":0.02406478869068663,"172":-0.0066649978740881055,"173":0.01883118939020406,"174":-0.11122651892259197,"175":-0.07923320150548645,"176":0.02691319769387074,"177":-0.030704542044573065,"178":-0.12076328027964087,"179":-0.010656030147300773,"180":-0.07834834959594522,"181":0.06386921686971368,"182":-0.020292635741488943,"183":-0.00577276856256625,"184":-0.05314015075042426,"185":-0.053093343919390815,"186":0.1103324554456007,"187":-0.019831921336445665,"188":-0.06902700896708683,"189":-0.20777845281420776,"190":-0.04381198263812581,"191":-0.10672278588037915,"192":0.06740028753277742,"193":-0.037068391257916465,"194":0.05096268581098349,"195":-0.07021151511822106,"196":-0.024069545385040993,"197":-0.14112472858289507,"198":0.08798562289191446,"199":0.023435454156714327}},{"sx":5,"sy":5,"depth":8,"w":{"0":-0.046385175455241304,"1":-0.05586093669414732,"2":-0.09109964414973307,"3":-0.011682067167753482,"4":-0.016729238122705832,"5":-0.01594896337436856,"6":-0.02401138574581614,"7":0.0111671361834105,"8":-0.024812613285337768,"9":-0.06238401384432561,"10":-0.021876870900093704,"11":-0.04914944462246487,"12":0.029906448549975574,"13":-0.013137284495072024,"14":-0.05428031288115474,"15":0.05482175514032316,"16":-0.11042783390284289,"17":0.03378031058136732,"18":-0.038584994706749705,"19":0.14929101834148722,"20":-0.046962689596580204,"21":0.05810405404774829,"22":-0.033223231924767324,"23":-0.015793542733957503,"24":-0.058115738024581476,"25":0.032844236745848895,"26":-0.11691712736007431,"27":0.04724113207165679,"28":-0.02117015069833226,"29":-0.0849316389323536,"30":-0.10758409764398269,"31":-0.010796469290028893,"32":0.03973126848993527,"33":-0.014217098679264326,"34":-0.04292891526920948,"35":0.15576708435974648,"36":0.004305128261508416,"37":-0.048578364150248174,"38":-0.06986573656915664,"39":-0.05315337551126677,"40":-0.067582334235535,"41":-0.042152085082546226,"42":0.09342731913905268,"43":0.045622672431331175,"44":-0.11119712806766024,"45":0.00477872951190385,"46":-0.05744604995977804,"47":-0.07420574878039714,"48":-0.14573978253811834,"49":-0.11796441628018642,"50":0.008223925060121538,"51":-0.07096298924255397,"52":0.11314618336611608,"53":-0.19281938001416224,"54":-0.06859559613759628,"55":-0.10814740437951748,"56":0.13845739592470668,"57":-0.02109335062842125,"58":0.09203755047956114,"59":-0.055962167899249536,"60":-0.059968423791249746,"61":0.03000586470238122,"62":-0.012330246194376884,"63":0.007485931567768636,"64":-0.018507507295120136,"65":0.014421228464276622,"66":0.04536723714445784,"67":-0.09544013920975145,"68":-0.05736332594210286,"69":-0.039299371119917104,"70":-0.08318280050914205,"71":0.0851401840509926,"72":-0.07784918592266561,"73":-0.08205883166580584,"74":0.03884834218583526,"75":0.09237327462753099,"76":0.011730151461680334,"77":0.0015775465582263158,"78":-0.09188451578931663,"79":-0.03470367066086942,"80":-0.08305615008374144,"81":0.022132844209382056,"82":0.08167211445975073,"83":-0.17013458605281667,"84":-0.0037317385325222564,"85":0.004352501332622707,"86":-0.0019213755880924345,"87":-0.0060705753276460925,"88":0.04487048894914721,"89":-0.027486381777393685,"90":-0.14776918685111784,"91":-0.0033729436588151016,"92":0.01693834557798747,"93":-0.16258875264084832,"94":0.057129604296400266,"95":0.1040203039459603,"96":-0.01035822423392327,"97":0.06151332520904535,"98":-0.0438033227061915,"99":-0.034155840298477465,"100":-0.04284402246537402,"101":-0.03577040042608827,"102":-0.0698718596052409,"103":0.06120983022825661,"104":0.07606104350696827,"105":0.06207511890209929,"106":-0.06884353400708865,"107":-0.21920260017373228,"108":-0.06116800931318252,"109":-0.022948688393674425,"110":0.05268272163803479,"111":0.05733910085808111,"112":-0.055562946029072836,"113":-0.05530184358339817,"114":-0.024266467018380367,"115":0.09921101984537842,"116":-0.01985722124391403,"117":0.05513888561100726,"118":-0.1026311606341707,"119":-0.15749710447952064,"120":-0.14218085529292737,"121":-0.11712451179125387,"122":-0.06578804327538103,"123":-0.09499737455007318,"124":-0.018719542838274587,"125":0.06878646207528716,"126":-0.0009476580916454462,"127":-0.12236943197384137,"128":-0.0654696298619892,"129":0.03906877479587697,"130":0.043611702080205324,"131":-0.04249951755163325,"132":0.01733351553752397,"133":0.07541268238063956,"134":-0.010796191785285143,"135":-0.028920004326227565,"136":-0.042283298683581355,"137":0.08953589497696647,"138":-0.14049105207617418,"139":0.06764531439065725,"140":-0.022050736125512352,"141":0.09483260229475526,"142":0.0621502032325805,"143":0.04370228790947621,"144":0.1596417502493629,"145":0.1239612880932646,"146":0.05879328813935418,"147":-0.10590422438342846,"148":0.02947848798646841,"149":-0.044095370287251974,"150":-0.0427329323545051,"151":-0.02956402110505565,"152":-0.09754873182113785,"153":0.05930899148874959,"154":-0.079565866591181,"155":0.025832469839885908,"156":-0.00515488259780318,"157":0.10696614665030103,"158":0.06005268752259198,"159":-0.03492002552935893,"160":0.03064128473154615,"161":-0.07040696544918759,"162":-0.013776316850169975,"163":-0.007814414725453508,"164":0.014098641313766683,"165":-0.06827862899761332,"166":-0.07855358629026095,"167":-0.11161080497088018,"168":-0.13432531223944696,"169":-0.10971186718194227,"170":0.06815463529126524,"171":-0.0023509992513911426,"172":0.0664858531746628,"173":0.04929112452352573,"174":-0.07858201097757535,"175":0.011212385708334308,"176":-0.051347247269198794,"177":0.04983623279100061,"178":-0.09552053496247116,"179":-0.2098079144227026,"180":-0.10600263121119864,"181":0.012379959267210364,"182":-0.14698485859986787,"183":-0.09138317864881076,"184":-0.015238988148129313,"185":0.19371393937665163,"186":-0.11835777417470084,"187":0.0362030670717059,"188":0.06545177482401063,"189":0.04529725218326131,"190":-0.07736648887356186,"191":-0.061751084932580275,"192":-0.017884017201050824,"193":-0.044077826435588496,"194":0.017976875472482754,"195":-0.0861126914158846,"196":-0.04921986783424608,"197":-0.0725999258248007,"198":-0.06876271364615798,"199":-0.06684390777499302}},{"sx":5,"sy":5,"depth":8,"w":{"0":0.016011939953905922,"1":-0.01702285054964867,"2":0.07084963203106932,"3":-0.023400514136600936,"4":-0.05142672694951732,"5":-0.0392044615231815,"6":-0.07847276332020874,"7":-0.07574330139963854,"8":0.08687339524919166,"9":-0.09976458075137272,"10":-0.05872966417901144,"11":-0.1545279324154182,"12":0.032162398067804555,"13":-0.025046929683889607,"14":-0.005449178443032585,"15":-0.015036019752336332,"16":-0.11790147945731701,"17":0.05993159400159177,"18":0.04704007172669692,"19":-0.009098491383321871,"20":0.03614426820706515,"21":-0.04419310740985771,"22":-0.005132311381090339,"23":-0.027923684230797816,"24":-0.13881762833660613,"25":-0.018195592754333887,"26":-0.23013047951671245,"27":0.06978053509222602,"28":0.05975947403383786,"29":-0.06490546512545405,"30":-0.025925119060194794,"31":-0.08204550592558167,"32":0.02351669230872392,"33":-0.048980067122336414,"34":-0.12430104796773292,"35":-0.011765772284745407,"36":-0.052094881771652495,"37":-0.029593892045380807,"38":-0.08264335699359465,"39":-0.04921981414882,"40":0.12068709890634609,"41":-0.1129797082222864,"42":-0.004694954532135054,"43":-0.06200634151746097,"44":0.07820073113867308,"45":-0.05483709460722731,"46":0.026036424754246775,"47":0.0663780677686496,"48":-0.10912900474623236,"49":-0.07866382648587657,"50":-0.12270149234069713,"51":-0.052926778403334866,"52":0.028712102744925496,"53":-0.03802592401165801,"54":0.0622713751753328,"55":-0.02373389776010744,"56":-0.12255116547857614,"57":-0.060193129377083404,"58":-0.027678448998013118,"59":-0.10396616037585316,"60":-0.011190272934109619,"61":-0.011502676911751462,"62":0.08632184083745995,"63":0.016577357227091537,"64":0.0716887933362529,"65":-0.10719255571549097,"66":-0.0060320885905231925,"67":0.054975825662539855,"68":0.09193891560270612,"69":0.014341504036582074,"70":-0.009286265194029425,"71":0.003049025069489165,"72":-0.037084215947576306,"73":0.0663150813272807,"74":-0.08217832524570393,"75":-0.05090010184911574,"76":0.018112798931133378,"77":-0.07954055428124529,"78":-0.036080983578881225,"79":-0.0081656526932245,"80":-0.18156624238902214,"81":0.07342833123746959,"82":-0.08010297831609262,"83":0.0018301401953987957,"84":0.06531320448288412,"85":0.012064755722015475,"86":0.025922449573781935,"87":-0.047428381110902695,"88":0.06135789114685975,"89":0.028200567059016825,"90":0.05215202931103073,"91":0.02026756156069766,"92":0.003422544072806728,"93":0.1483528130162656,"94":0.023784944671552427,"95":0.04581618806182817,"96":0.07661694213279535,"97":-0.1134825762545917,"98":-0.0019170513202406772,"99":-0.044929640289581955,"100":-0.08289491560480348,"101":-0.11412620683442747,"102":-0.2296001253335462,"103":-0.09273821654867553,"104":-0.030521110092877057,"105":0.09023588720536913,"106":-0.07744928850075306,"107":0.06945818344482264,"108":-0.00024181857047402694,"109":-0.00048184300232483507,"110":-0.00905874365120223,"111":0.007356597131918055,"112":-0.1304360215815988,"113":-0.026656613242995973,"114":0.023105504036696485,"115":0.23225861848558904,"116":0.09083175309526825,"117":-0.12933075759630516,"118":-0.0746939387236203,"119":0.04856201261386393,"120":0.015233229665709586,"121":0.005894697667518718,"122":0.03983106900965036,"123":0.053191738834232845,"124":-0.08920074400763314,"125":0.04438831065076946,"126":0.04967543742754494,"127":-0.13546800702685471,"128":-0.06475080878242542,"129":-0.07235267206805944,"130":-0.008066624525518703,"131":-0.0678595944754493,"132":0.013885004642289388,"133":-0.10233121644693975,"134":0.0061183977512674,"135":-0.011099325893342733,"136":-0.015329681334398436,"137":0.03367108274677752,"138":-0.06250510144203443,"139":-0.07325237157708113,"140":-0.15516327442763794,"141":0.024060006312485727,"142":-0.03465821819578362,"143":0.05963722333652888,"144":-0.06593909200303805,"145":-0.03128027465271583,"146":0.1028996946325896,"147":-0.03323936265922785,"148":-0.0008353836684099337,"149":-0.05326807954304781,"150":-0.12877851490248635,"151":0.015119715041388131,"152":0.12308214625178363,"153":-0.08445691362346591,"154":-0.03900165714533674,"155":0.06544770410463978,"156":-0.09808203909256755,"157":-0.09622874669944274,"158":-0.0719753482631725,"159":-0.12405999181573116,"160":-0.031174613862653456,"161":0.035433866241971715,"162":-0.020221606718278433,"163":0.08533086830336448,"164":-0.019915798865698678,"165":0.012237160849329208,"166":-0.09854758650022839,"167":0.04924215856901939,"168":-0.017712988579906216,"169":0.04409194960673409,"170":0.024576731989031677,"171":0.057503486780448115,"172":-0.04748217422598832,"173":-0.035609377171663285,"174":-0.05187061993293183,"175":0.008862991929364145,"176":-0.03804800270051444,"177":-0.04278796566942034,"178":0.08155322319003647,"179":-0.034257217228963084,"180":0.008966214681826764,"181":-0.07783631001234428,"182":-0.0018185821332103993,"183":-0.1355333868381882,"184":0.007271347124957231,"185":-0.033131170593954366,"186":0.017646527539945635,"187":-0.03794800866922618,"188":-0.01363391133565916,"189":0.08133144141810932,"190":0.16157370753746975,"191":-0.06253417069096363,"192":-0.11282956061518279,"193":0.040927724782628086,"194":0.06755407457874611,"195":-0.08573103787533896,"196":-0.04532117085245667,"197":-0.11306872348729224,"198":0.03911967110873514,"199":-0.11667199552154982}},{"sx":5,"sy":5,"depth":8,"w":{"0":0.09536415069038137,"1":0.0159688483183433,"2":0.022412842743678378,"3":0.06745297267776115,"4":-0.029874308016477828,"5":-0.10825085648048226,"6":-0.03289227448331499,"7":-0.07663094469776761,"8":-0.05623403308780385,"9":-0.02683326426670668,"10":-0.04353338126173216,"11":-0.11145477854788143,"12":0.0551846873314217,"13":0.046061031058217905,"14":-0.09233729051720031,"15":0.0006953086463974819,"16":-0.08417189823129083,"17":0.01136180555016842,"18":-0.03069416565846255,"19":-0.017011287698091522,"20":-0.018391797663343902,"21":0.06199234164199269,"22":-0.009952072482203027,"23":-0.005764179876776161,"24":0.04176917748634157,"25":-0.047675493933049956,"26":-0.007588838916870426,"27":0.042926292921548946,"28":-0.02535684186725534,"29":-0.10010361452926678,"30":0.005112093873283493,"31":-0.11512379325207793,"32":-0.03585908026407179,"33":0.07974373647923946,"34":0.04593652310175791,"35":0.04136810383440555,"36":-0.06854494065155146,"37":-0.10022578987346907,"38":-0.09169352755934818,"39":-0.01580162928723486,"40":0.008947766158351583,"41":-0.036212158562932896,"42":0.04037943822492233,"43":0.050954230859822015,"44":-0.012513594616326399,"45":-0.07667442039397498,"46":-0.045591840884716364,"47":-0.06983978688330295,"48":-0.06598871857517538,"49":0.00007083976919591102,"50":0.14192088931584262,"51":-0.0010879300725670908,"52":-0.044550483606174036,"53":0.014252969317703158,"54":0.040011440503269165,"55":0.013866315587602764,"56":0.03170488060999183,"57":-0.06052013619902279,"58":0.03552046267924074,"59":-0.04393923593369315,"60":0.04037680899597533,"61":-0.12185933269057816,"62":-0.061783914594148365,"63":0.03260501758664083,"64":0.008245523570577154,"65":0.03779652657371538,"66":0.1149778741891595,"67":-0.00937322625877941,"68":0.06892650879320569,"69":0.019549253066622113,"70":0.06525006424811518,"71":-0.027715233151558133,"72":0.01957544201477495,"73":-0.1933361671651202,"74":-0.05325546332590324,"75":-0.13738148955365279,"76":0.08901596975245285,"77":-0.01223586241250021,"78":-0.056210007316142195,"79":-0.028214851572177645,"80":-0.018357727263063495,"81":-0.0821509587287436,"82":0.11596021656983438,"83":0.002290018717359985,"84":-0.12927004103234804,"85":0.05227149928232521,"86":0.011218370653507429,"87":-0.033651376698537794,"88":0.056602967046738846,"89":-0.11277683823132474,"90":-0.16773303534044573,"91":0.045856826224554115,"92":0.038299222021047845,"93":0.03626828220883894,"94":-0.07296936672035519,"95":-0.11901460877626492,"96":-0.09738496830380498,"97":-0.018850183519846127,"98":-0.05303294178501061,"99":0.02968670467205231,"100":0.08139710198962466,"101":-0.04343175968383698,"102":-0.10776742482533762,"103":-0.1393723774576019,"104":0.10429922613051686,"105":-0.10745838755535643,"106":-0.008515067358460957,"107":-0.02613081460750502,"108":0.016716606569642373,"109":0.13057156107441323,"110":-0.017959288040548572,"111":-0.0576679512709168,"112":0.05241730407718112,"113":-0.13308263569249223,"114":-0.009494829020953735,"115":0.016060214458646513,"116":-0.009315106859982528,"117":-0.04901645689269708,"118":-0.012526026194214045,"119":-0.12486469778369041,"120":-0.009357690862885102,"121":0.0027714575295537123,"122":0.022306394945535848,"123":-0.0360964136996098,"124":-0.03892386252969041,"125":-0.025814256983366063,"126":0.022062496370203053,"127":0.03935269447533369,"128":0.04350481248895745,"129":0.05624975152053126,"130":0.028708105910707955,"131":0.08298053855795622,"132":-0.045923404358530664,"133":0.04968020094434901,"134":0.03652270937257606,"135":-0.0501316251835129,"136":-0.06603302607845184,"137":-0.1254357023427554,"138":-0.03312928062147481,"139":-0.018583056290773257,"140":-0.13064255814278125,"141":-0.0738414747837258,"142":0.06156810011165352,"143":-0.03865983293120371,"144":-0.06648970104680683,"145":0.0657812078447782,"146":0.01460557287126615,"147":0.053801548894584016,"148":-0.11187265284080115,"149":0.033468473941534176,"150":0.06878138389839164,"151":-0.07784296476371835,"152":-0.09318279570823798,"153":0.10309379872797528,"154":-0.07661992770300145,"155":0.01597642842139892,"156":-0.09825756922623768,"157":0.030562720948672382,"158":-0.00638980738542018,"159":-0.10048193144427753,"160":-0.16646427826880264,"161":-0.05866548254030238,"162":-0.08324156498702853,"163":-0.10952934217142657,"164":0.05939504642375547,"165":0.008013497755368642,"166":0.022647012026971874,"167":0.09369195938756904,"168":0.06098326626148706,"169":-0.07498124177131567,"170":-0.008251388182196572,"171":-0.13064926290357926,"172":0.11397169593057063,"173":-0.07878460304857848,"174":-0.11323477271843332,"175":-0.045277930769953484,"176":-0.10691947044986144,"177":-0.01110569114387307,"178":0.011447157136208783,"179":0.16305421035703596,"180":0.1630117952047454,"181":0.02339724396288627,"182":0.0048572024702678955,"183":0.002392239977022565,"184":-0.07256756999036691,"185":0.049827824934051496,"186":0.05340801409350053,"187":-0.02975112310969394,"188":0.06996991189323017,"189":0.08453347018945521,"190":-0.06835971345817639,"191":0.049066385870385074,"192":-0.032505358496770304,"193":0.032011406236805665,"194":-0.043367557300792406,"195":0.002925618863347763,"196":-0.09836562208110046,"197":-0.01705187172209173,"198":0.053934708384092124,"199":-0.09160271569110101}},{"sx":5,"sy":5,"depth":8,"w":{"0":-0.0004242911179748762,"1":-0.08583768719135017,"2":0.024656147133339423,"3":0.09082761485690775,"4":-0.004243954464698992,"5":-0.16169850087249632,"6":0.060587721731705506,"7":-0.0705486712801072,"8":-0.05423186668491595,"9":-0.0734588517004487,"10":-0.12247944039079299,"11":-0.11667141096998192,"12":-0.14208980256210682,"13":0.012135700369497968,"14":-0.04602025457230774,"15":-0.02454116400574909,"16":0.036131556600786534,"17":-0.023953735997681823,"18":-0.17767908911046884,"19":0.11052473271371312,"20":-0.04871098103792131,"21":-0.019176803083318813,"22":-0.003729364680423278,"23":-0.11801983999480065,"24":0.028935592147882796,"25":-0.00029290266273390383,"26":-0.17938868316115397,"27":-0.09626491665812632,"28":-0.1295985277034332,"29":0.02639991029721781,"30":0.06516492462387685,"31":-0.07284693456136868,"32":-0.07087641510516154,"33":0.06446103746101038,"34":-0.0024729538867361797,"35":0.04212894458349612,"36":-0.1194603523703781,"37":-0.000479520204764852,"38":0.03153867585459287,"39":-0.1435088901150718,"40":0.04588151285574598,"41":-0.05696214877116112,"42":0.08595704090435381,"43":0.052809180574313185,"44":0.06910780309517843,"45":-0.040123970190857644,"46":-0.1399328283042635,"47":-0.006081241451284388,"48":-0.08865206716120765,"49":0.00031136224819555626,"50":-0.10354027180065753,"51":-0.07983207605629983,"52":-0.095498735200012,"53":-0.04836052344635325,"54":-0.23043070864205584,"55":-0.0537028099925694,"56":0.04334169169498592,"57":-0.02444369934387625,"58":-0.05481595361244672,"59":-0.028524266010234556,"60":0.05154405263028095,"61":0.02153952559765748,"62":-0.026845182372534464,"63":-0.07099566400188259,"64":0.031569975964234595,"65":-0.007954551549943234,"66":0.04784532217465926,"67":0.04908958053389639,"68":-0.05043830484034176,"69":-0.12327952310129095,"70":-0.05860679035925588,"71":0.02903184183085076,"72":-0.02851930529674232,"73":-0.0053576439954044364,"74":-0.022502195306756397,"75":0.012095251574203521,"76":-0.15101273767915926,"77":-0.04663631677144376,"78":0.13283195927024216,"79":0.07268886188707882,"80":-0.04220584161573103,"81":-0.015131225694397206,"82":-0.03745449712708395,"83":-0.1490117811137356,"84":-0.040162134398116146,"85":-0.08657970438368799,"86":0.045231410516307316,"87":-0.11615558391537942,"88":0.11356044766100029,"89":0.04527926282282287,"90":-0.019759228430056192,"91":-0.11039649828095213,"92":0.08023125038317278,"93":-0.025119480525753066,"94":0.06029498730146143,"95":0.09775468269184802,"96":0.007504246838025145,"97":-0.025707305667375686,"98":-0.022415051070329976,"99":0.06103353717771103,"100":0.06860482528864596,"101":0.01641404219351198,"102":0.10404064074991949,"103":-0.13382334095639306,"104":0.04738057652664655,"105":-0.08895315276734181,"106":-0.07471332226715367,"107":-0.05087686091670936,"108":-0.004026166651392652,"109":0.042335468676265954,"110":-0.02716531305887017,"111":0.03980351455365952,"112":-0.05753437984121037,"113":0.0035338607287473617,"114":0.12194357852666372,"115":-0.008711730412149168,"116":0.06044506044649956,"117":-0.06786239601436554,"118":-0.05501833631275581,"119":0.109356108672294,"120":0.059795088972582205,"121":0.10264102101405422,"122":0.045716526316681445,"123":-0.08595397957322011,"124":-0.0070756838930817224,"125":-0.007188615619395641,"126":-0.05060149798280802,"127":-0.030811318982263948,"128":-0.03775103909627762,"129":0.08193424858919318,"130":0.039832770937274525,"131":-0.07435254158802274,"132":0.050832237831097304,"133":0.0489718072046942,"134":-0.019783406039937192,"135":-0.025463907142641476,"136":-0.22058902130119398,"137":-0.011035602828119731,"138":-0.005398382765950309,"139":0.014149625320439377,"140":-0.024280488021663126,"141":-0.08888631794689468,"142":-0.1267939585363783,"143":-0.07690461689010292,"144":-0.027764557269624176,"145":-0.03732513397698824,"146":0.059826028397857826,"147":0.012625373146236716,"148":-0.060109356254883395,"149":-0.08234743028310025,"150":0.008349265617399073,"151":-0.026196930278261796,"152":-0.059250450549893106,"153":-0.012249477653085084,"154":0.03511206246678819,"155":0.11892041534385149,"156":-0.06421208783699915,"157":0.12510534108456708,"158":0.13621656288780482,"159":0.035727677741209204,"160":-0.08471513074799064,"161":-0.05331335873717573,"162":0.0525856551249739,"163":-0.016531347142974953,"164":0.14162753052642196,"165":-0.043077358864795585,"166":-0.0783416601793855,"167":-0.040328028916376796,"168":-0.07582366449551957,"169":-0.04901757776243845,"170":-0.0022470095775882506,"171":-0.0053375468311087585,"172":0.08370739514717308,"173":0.00476782977157873,"174":-0.09919467344772702,"175":-0.0105411721860496,"176":-0.000029381047772120443,"177":0.007517365175712859,"178":-0.06230630942503724,"179":-0.07998474764807621,"180":-0.05963499139560204,"181":-0.07868975094599005,"182":-0.05168419628055738,"183":-0.11859364746733994,"184":-0.09896785460525834,"185":-0.01340579615536955,"186":-0.06407526622035531,"187":0.030627254681611538,"188":-0.024506630444390935,"189":-0.10039340385589274,"190":-0.004629584982507004,"191":-0.08737294429585994,"192":0.10769585830416847,"193":-0.030742104827095884,"194":-0.07490578495756801,"195":-0.04238630961758822,"196":0.04382287459922084,"197":-0.023236974560938147,"198":0.024437151147073424,"199":-0.05582766399223255}}],"biases":{"sx":1,"sy":1,"depth":16,"w":{"0":0.05317018841197227,"1":0.07074319168789742,"2":0.0474656191927273,"3":0.06215134900849316,"4":0.06430925718752818,"5":0.06199545451435124,"6":0.08284014923962488,"7":0.054100411174704634,"8":0.08235475362391224,"9":0.047319916188130376,"10":0.06744341117048366,"11":0.04990216237310724,"12":0.0746461940875026,"13":0.06695708534675157,"14":0.06205300928369032,"15":0.06948938072910427}}},{"out_depth":16,"out_sx":12,"out_sy":12,"layer_type":"relu"},{"sx":3,"sy":3,"stride":3,"in_depth":16,"out_depth":16,"out_sx":4,"out_sy":4,"layer_type":"pool","pad":0},{"out_depth":10,"out_sx":1,"out_sy":1,"layer_type":"fc","num_inputs":256,"l1_decay_mul":0,"l2_decay_mul":1,"filters":[{"sx":1,"sy":1,"depth":256,"w":{"0":0.07682297526956978,"1":-0.03665375237183434,"2":0.01913436723105902,"3":-0.022145767710008545,"4":-0.005526532025309452,"5":0.038819526544170056,"6":0.0185410182491267,"7":0.049686101739260996,"8":0.01862080309721636,"9":-0.06402941551051108,"10":-0.04991486622321915,"11":-0.012182422276886424,"12":-0.013403166897012538,"13":0.08431840917820779,"14":-0.09412998988232676,"15":0.011386871697963137,"16":0.05364882512146799,"17":-0.041317541905816914,"18":0.011796974936440321,"19":-0.015475788033773398,"20":0.04244971174984621,"21":0.09431619765161808,"22":0.050902318369490766,"23":0.00588039502998682,"24":-0.03806475032096473,"25":0.067638542115721,"26":-0.012807694821774039,"27":-0.006546404101233722,"28":-0.0496906209485956,"29":0.055262653964558914,"30":-0.144806114110421,"31":-0.0484574566073998,"32":-0.06522095333612206,"33":-0.09239964985755861,"34":0.019178665611634133,"35":0.09179924110455327,"36":-0.03901467297264931,"37":-0.0631977196479518,"38":0.03995837716467386,"39":-0.06775656664909623,"40":0.010505783170916366,"41":-0.06371355866364053,"42":0.013784482889456983,"43":0.06973063245901466,"44":0.05992043729472959,"45":0.014392338071339404,"46":0.014271504649829514,"47":-0.007698250080503749,"48":0.03334198759431013,"49":0.02741096454513428,"50":0.14865072535127813,"51":0.04073767501946359,"52":-0.07117058198240853,"53":-0.0690104650214672,"54":0.0588308466076912,"55":-0.03547048853746224,"56":-0.03817643680084185,"57":0.05690960155855876,"58":0.1101164791370066,"59":0.007558301490039704,"60":-0.08114765753793751,"61":0.01713499760455057,"62":0.002294192986310003,"63":-0.017649788009798276,"64":0.07931255676001327,"65":0.03315278623262768,"66":0.03578559804590625,"67":0.007997917435059534,"68":0.051961009248206444,"69":0.020535716339494945,"70":-0.0011031455235694788,"71":-0.04158727084833693,"72":0.05149895771780206,"73":-0.05222135549844326,"74":-0.013561380874714472,"75":0.05636013442233089,"76":0.04359047214455222,"77":-0.05326508898610732,"78":0.015999775757390002,"79":0.1129333072324198,"80":0.08224842923965324,"81":0.06327833011864668,"82":0.01349779372762343,"83":-0.04368395247738657,"84":0.053788804112887494,"85":0.01082880763918894,"86":-0.025105357869498912,"87":0.011501902858970754,"88":-0.004297683587221045,"89":0.0030063066807946427,"90":-0.10175109058058965,"91":0.07767335784273152,"92":0.013638884418061449,"93":0.030449461479423085,"94":0.025085979003744246,"95":0.05669736252107781,"96":-0.08416991043888258,"97":-0.10284254734308747,"98":0.029344849507242036,"99":-0.07058333340087289,"100":-0.01655128362562988,"101":0.03722056588056427,"102":-0.02559774121605115,"103":0.05446029833413333,"104":0.08051474181284977,"105":0.13873030877948772,"106":-0.024869177799713708,"107":0.03743548735402252,"108":-0.07051200979370992,"109":-0.01589933626043078,"110":0.011709737279459903,"111":0.06323873381135761,"112":-0.038890821487059475,"113":-0.23437206529231686,"114":-0.05520031750403996,"115":0.030653735784839403,"116":0.043720048368255535,"117":0.061833152858757734,"118":-0.15053614635468612,"119":0.011098831793847843,"120":0.0020043488623272517,"121":-0.08559436122318971,"122":-0.16369137183601914,"123":0.020656399519950425,"124":0.1427750710490409,"125":-0.09688315122023144,"126":-0.03416486604002975,"127":-0.059136559225738884,"128":-0.04295332243457656,"129":-0.09195960281163912,"130":-0.05166584816708211,"131":-0.07242210753129968,"132":-0.1059164103422921,"133":-0.07020177392872783,"134":-0.0011906605187215796,"135":-0.10176971984063685,"136":-0.0085008441639719,"137":0.027494295773218703,"138":0.025912741592034823,"139":-0.07479038450380583,"140":0.11456088073415502,"141":0.017618631857039824,"142":-0.13010107443707378,"143":0.07503894893462291,"144":-0.005889387633113607,"145":0.058493245469523426,"146":0.06701565735302745,"147":-0.00721883734567688,"148":0.03346465074187304,"149":0.0805191761384916,"150":-0.0269075242471435,"151":0.02496493232823303,"152":0.00611631159855719,"153":0.07897685510093294,"154":0.034403289887936304,"155":0.0060983726739197285,"156":0.018650581371826548,"157":0.05118357161747544,"158":-0.03668952708895636,"159":-0.052050088744326074,"160":0.027728813714907184,"161":0.02964172097916953,"162":0.04009259220276559,"163":-0.045319371794824856,"164":-0.04236021731192448,"165":0.03632934039688802,"166":0.1034795832173482,"167":0.034658754196438504,"168":0.014071806641179734,"169":-0.05895464572651655,"170":-0.004687934754193555,"171":0.013945686485899016,"172":-0.003210101901242833,"173":-0.049908824316534865,"174":-0.05258457653934973,"175":-0.08514984691137892,"176":-0.05394076088594685,"177":0.07823847842812016,"178":0.005286776520116916,"179":-0.05747961383925608,"180":-0.0873341872775605,"181":0.07271426466615963,"182":-0.04785832493030914,"183":0.17394246691504037,"184":0.004186048873983177,"185":0.05312547072960128,"186":-0.05094916004267764,"187":0.05034126591200083,"188":0.009065201604681555,"189":-0.041960536251537735,"190":-0.07563754463247349,"191":0.00009900618903487923,"192":0.026891257171002724,"193":0.04090782768720162,"194":0.10060021580840804,"195":-0.02920025229451132,"196":0.055079113987214025,"197":-0.04067074615407111,"198":-0.08560452491253408,"199":-0.15062652494607512,"200":0.08694824840721843,"201":-0.01803519540371726,"202":0.07254256039519398,"203":-0.01848490791658561,"204":0.06798603818534624,"205":0.022330613371467804,"206":0.03590265717724486,"207":-0.0038869933702542795,"208":0.047125702573359254,"209":0.0813883358139043,"210":-0.03772915727303412,"211":-0.06317439150875864,"212":0.019772386182241468,"213":0.0143229386300474,"214":0.019999665991548607,"215":-0.02773167635026709,"216":0.097183020653419,"217":-0.025316216352911484,"218":-0.065731381553895,"219":-0.008764691218568238,"220":0.045380526985059046,"221":0.11756349646668506,"222":0.020838801745866973,"223":-0.05453671485158653,"224":0.002599221706204428,"225":-0.08888994384331075,"226":0.04802155530570669,"227":-0.03684679778699931,"228":0.022664290551362678,"229":0.048216119102983374,"230":0.014348537204191318,"231":0.0018433857215003268,"232":-0.0014075821231344006,"233":0.10446778839981309,"234":0.017839620390764324,"235":0.020592768188367295,"236":-0.0852645580024459,"237":-0.042248906353533164,"238":0.03347558774112774,"239":-0.03595745019793206,"240":0.018899454632570922,"241":0.031051392508942104,"242":0.0010527215000474043,"243":0.04964731623711575,"244":0.030974513502448085,"245":0.0619947647228737,"246":-0.023382095457592636,"247":0.04227653093647809,"248":0.06976417215403675,"249":0.08539026246972807,"250":-0.015174334425828684,"251":-0.025609209880542053,"252":0.08466260099324346,"253":0.06334477420707747,"254":0.007378916690432032,"255":0.053192211343227776}},{"sx":1,"sy":1,"depth":256,"w":{"0":-0.055189563144495184,"1":0.001554896335344025,"2":0.09764901680736437,"3":-0.07207559523822052,"4":-0.02334915819586074,"5":-0.081700780093273,"6":0.12849316521316048,"7":-0.10110014976986696,"8":-0.015936020838033423,"9":-0.06009146876980459,"10":-0.054172419907778276,"11":-0.02746072165877945,"12":-0.07393494099955877,"13":0.07200257299986017,"14":-0.037060226649466295,"15":-0.009960096624610507,"16":-0.11299980663395667,"17":0.11797779123692449,"18":0.015373823099350857,"19":0.09905495615176203,"20":-0.0041130055413072745,"21":0.006253326517436428,"22":0.026282784125538857,"23":0.02477703483462337,"24":0.0813223180868742,"25":0.021085520170376466,"26":-0.10372401013821728,"27":-0.011237343670042612,"28":0.04726959202250498,"29":-0.022475506751564758,"30":-0.05559038752892989,"31":0.16480454775993938,"32":0.053180740776098974,"33":0.1295362835402504,"34":0.015163584879991672,"35":0.04894529947743574,"36":-0.00444481019897595,"37":0.08459923288673234,"38":-0.001724310961862169,"39":0.05659352499592865,"40":0.07284647934296827,"41":0.025076817087755658,"42":-0.09694411557201357,"43":-0.0036127057303993186,"44":0.03428974063550375,"45":0.05649335057848798,"46":-0.05705403154807597,"47":-0.029838562651537115,"48":0.0712563653544176,"49":-0.023098247003777946,"50":-0.0703314540863063,"51":-0.014132558115017277,"52":0.03905664505985489,"53":0.01622247470664023,"54":-0.041876054802193134,"55":0.01314268440612151,"56":-0.06499262067880059,"57":0.06778455106358791,"58":-0.001330784731520826,"59":-0.06455778791539794,"60":0.010258578916777472,"61":-0.07367908724757326,"62":-0.0056698044609475836,"63":-0.036871552807922134,"64":-0.0007856912686529225,"65":0.02898240029975453,